tree
version=v3
num_class=1
num_tree_per_iteration=1
label_index=0
max_feature_idx=178
feature_names=APP_AMT_CREDIT-APP_EXT_SOURCE_2 APP_AMT_REQ_CREDIT_BUREAU_HOUR APP_CNT_CHILDREN APP_FLAG_CONT_MOBILE APP_FLAG_DOCUMENT_10 APP_FLAG_DOCUMENT_11 APP_FLAG_DOCUMENT_12 APP_FLAG_DOCUMENT_15 APP_FLAG_DOCUMENT_17 APP_FLAG_DOCUMENT_19 APP_FLAG_DOCUMENT_2 APP_FLAG_DOCUMENT_20 APP_FLAG_DOCUMENT_21 APP_FLAG_DOCUMENT_4 APP_FLAG_DOCUMENT_5 APP_FLAG_DOCUMENT_6 APP_FLAG_DOCUMENT_7 APP_FLAG_DOCUMENT_9 APP_FLAG_EMP_PHONE APP_FLAG_MOBIL APP_LIVE_CITY_NOT_WORK_CITY APP_REG_REGION_NOT_LIVE_REGION APP_REG_REGION_NOT_WORK_REGION BUR_AMT_CREDIT_SUM_OVERDUE_min BUR_CNT_CREDIT_PROLONG_max BUR_CNT_CREDIT_PROLONG_mean BUR_CNT_CREDIT_PROLONG_min BUR_CREDIT_DAY_OVERDUE_max BUR_CREDIT_DAY_OVERDUE_min INST_PAY_AMT_PAYMENT_min_mean-APP_EXT_SOURCE_3 INST_PAY_NUM_INSTALMENT_NUMBER_min_max INST_PAY_NUM_INSTALMENT_NUMBER_min_mean INST_PAY_NUM_INSTALMENT_NUMBER_min_min INST_PAY_NUM_INSTALMENT_VERSION_max_min INST_PAY_NUM_INSTALMENT_VERSION_min_min POS_CASH_CNT_INSTALMENT_max_min POS_CASH_SK_DPD_DEF_max_min POS_CASH_SK_DPD_DEF_min_max POS_CASH_SK_DPD_DEF_min_mean POS_CASH_SK_DPD_DEF_min_min POS_CASH_SK_DPD_max_min POS_CASH_SK_DPD_min_max POS_CASH_SK_DPD_min_mean POS_CASH_SK_DPD_min_min PREVIOUS_APPL_NFLAG_LAST_APPL_IN_DAY_max PREVIOUS_APPL_NFLAG_LAST_APPL_IN_DAY_min SK_ID_CURR_max_max SK_ID_CURR_max_mean SK_ID_CURR_max_min SK_ID_CURR_max_y_max SK_ID_CURR_max_y_mean SK_ID_CURR_max_y_min SK_ID_CURR_mean_max SK_ID_CURR_mean_min SK_ID_CURR_mean_y_max SK_ID_CURR_mean_y_min SK_ID_CURR_min_max SK_ID_CURR_min_mean SK_ID_CURR_min_min SK_ID_CURR_min_y_max SK_ID_CURR_min_y_mean SK_ID_CURR_min_y_min APP_AMT_CREDIT APP_AMT_CREDIT+APP_EXT_SOURCE_3 APP_DAYS_EMPLOYED+APP_EXT_SOURCE_2 APP_FLAG_DOCUMENT_8 APP_LIVE_REGION_NOT_WORK_REGION APP_REG_CITY_NOT_WORK_CITY BUR_CREDIT_DAY_OVERDUE_mean BUR_DAYS_CREDIT_ENDDATE_max-APP_EXT_SOURCE_2 BUR_DAYS_CREDIT_max-APP_AMT_CREDIT INST_PAY_AMT_PAYMENT_min_mean INST_PAY_AMT_PAYMENT_min_mean+APP_EXT_SOURCE_2 INST_PAY_AMT_PAYMENT_min_mean+APP_EXT_SOURCE_3 POS_CASH_CNT_INSTALMENT_FUTURE_min_min POS_CASH_SK_DPD_max_max POS_CASH_SK_DPD_mean_min PREVIOUS_APPL_NFLAG_LAST_APPL_IN_DAY_mean APP_AMT_CREDIT+APP_EXT_SOURCE_2 APP_AMT_REQ_CREDIT_BUREAU_DAY BUR_DAYS_CREDIT_ENDDATE_max BUR_DAYS_CREDIT_ENDDATE_max+APP_AMT_CREDIT BUR_DAYS_CREDIT_ENDDATE_max+APP_EXT_SOURCE_2 INST_PAY_NUM_INSTALMENT_VERSION_min_max POS_CASH_CNT_INSTALMENT_FUTURE_max_max POS_CASH_CNT_INSTALMENT_FUTURE_max_min APP_AMT_ANNUITY-APP_AMT_CREDIT APP_AMT_GOODS_PRICE APP_AMT_GOODS_PRICE+APP_AMT_CREDIT APP_DAYS_EMPLOYED-APP_EXT_SOURCE_3 APP_FLAG_DOCUMENT_14 BUR_DAYS_CREDIT_ENDDATE_max+APP_AMT_GOODS_PRICE BUR_DAYS_CREDIT_ENDDATE_max-APP_AMT_CREDIT BUR_DAYS_CREDIT_max+APP_AMT_CREDIT INST_PAY_AMT_PAYMENT_min_mean/APP_EXT_SOURCE_2 INST_PAY_DAYS_INSTALMENT_mean_mean INST_PAY_NUM_INSTALMENT_NUMBER_max_min POS_CASH_MONTHS_BALANCE_max_min POS_CASH_SK_DPD_DEF_mean_min POS_CASH_SK_DPD_max_mean APP_AMT_CREDIT-APP_EXT_SOURCE_3 APP_AMT_GOODS_PRICE*APP_AMT_CREDIT APP_AMT_REQ_CREDIT_BUREAU_MON APP_AMT_REQ_CREDIT_BUREAU_YEAR APP_REGION_RATING_CLIENT BUR_DAYS_CREDIT_ENDDATE_max-APP_AMT_GOODS_PRICE INST_PAY_AMT_PAYMENT_min_mean+APP_AMT_CREDIT INST_PAY_AMT_PAYMENT_min_mean-APP_EXT_SOURCE_2 INST_PAY_DAYS_ENTRY_PAYMENT_max_mean APP_AMT_ANNUITY APP_AMT_ANNUITY*APP_AMT_CREDIT APP_AMT_GOODS_PRICE+APP_AMT_ANNUITY APP_AMT_REQ_CREDIT_BUREAU_WEEK APP_DAYS_EMPLOYED-APP_AMT_CREDIT POS_CASH_MONTHS_BALANCE_max_mean POS_CASH_SK_DPD_mean_mean APP_AMT_ANNUITY+APP_AMT_CREDIT APP_AMT_ANNUITY-APP_EXT_SOURCE_3 APP_DAYS_EMPLOYED APP_DAYS_EMPLOYED+INST_PAY_AMT_PAYMENT_min_mean BUR_DAYS_CREDIT_ENDDATE_max+APP_EXT_SOURCE_3 BUR_DAYS_CREDIT_ENDDATE_max+INST_PAY_AMT_PAYMENT_min_mean BUR_DAYS_CREDIT_max+APP_EXT_SOURCE_2 BUR_DAYS_CREDIT_max+APP_EXT_SOURCE_3 BUR_DAYS_CREDIT_max+INST_PAY_AMT_PAYMENT_min_mean BUR_DAYS_CREDIT_max-APP_EXT_SOURCE_2 BUR_DAYS_CREDIT_max-APP_EXT_SOURCE_3 BUR_DAYS_CREDIT_max-INST_PAY_AMT_PAYMENT_min_mean INST_PAY_AMT_PAYMENT_max_mean INST_PAY_AMT_PAYMENT_min_mean-APP_AMT_GOODS_PRICE INST_PAY_NUM_INSTALMENT_VERSION_max_max POS_CASH_CNT_INSTALMENT_FUTURE_max_mean POS_CASH_CNT_INSTALMENT_max_max POS_CASH_CNT_INSTALMENT_mean_max POS_CASH_SK_DPD_mean_max PREVIOUS_APPL_AMT_GOODS_PRICE_max PREVIOUS_APPL_CNT_PAYMENT_min APP_AMT_ANNUITY-APP_EXT_SOURCE_2 APP_FLAG_DOCUMENT_16 APP_OBS_30_CNT_SOCIAL_CIRCLE BUR_DAYS_CREDIT_ENDDATE_max-APP_EXT_SOURCE_3 BUR_DAYS_CREDIT_max+APP_AMT_ANNUITY BUR_DAYS_CREDIT_max+APP_AMT_GOODS_PRICE INST_PAY_DAYS_ENTRY_PAYMENT_max_min POS_CASH_MONTHS_BALANCE_min_min POS_CASH_SK_DPD_DEF_mean_mean PREVIOUS_APPL_AMT_CREDIT_min APP_AMT_GOODS_PRICE-APP_EXT_SOURCE_3 APP_DAYS_EMPLOYED+APP_AMT_CREDIT APP_OBS_60_CNT_SOCIAL_CIRCLE APP_FLAG_DOCUMENT_13 APP_FLAG_DOCUMENT_15.1 APP_FLAG_DOCUMENT_17.1 APP_FLAG_DOCUMENT_20.1 APP_FLAG_DOCUMENT_5.1 APP_FLAG_DOCUMENT_8.1 APP_FLAG_DOCUMENT_4.1 APP_LIVE_REGION_NOT_WORK_REGION.1 APP_FLAG_CONT_MOBILE.1 APP_FLAG_DOCUMENT_16.1 APP_FLAG_DOCUMENT_10.1 APP_FLAG_DOCUMENT_11.1 APP_FLAG_DOCUMENT_9.1 APP_FLAG_DOCUMENT_18 APP_FLAG_PHONE APP_FLAG_DOCUMENT_12.1 APP_FLAG_EMP_PHONE.1 APP_FLAG_DOCUMENT_3 APP_NAME_CONTRACT_TYPE APP_CODE_GENDER APP_FLAG_OWN_CAR APP_FLAG_OWN_REALTY APP_NAME_TYPE_SUITE APP_NAME_INCOME_TYPE APP_NAME_EDUCATION_TYPE APP_NAME_FAMILY_STATUS APP_NAME_HOUSING_TYPE APP_WEEKDAY_APPR_PROCESS_START APP_ORGANIZATION_TYPE
feature_infos=[-1:33446] [-1:4] [0:12] [0:1] none [0:1] none [0:1] [0:1] [0:1] none [0:1] [0:1] none [0:1] [0:1] none [0:1] [0:1] none [0:1] [0:1] [0:1] [-1:66] [-1:7] [-1:93] [-1:5] [-1:578] [-1:62] [-1:138622] [-1:1] [-1:6] [-1:0] [-1:31] [-1:5] [-1:45] [-1:54] [-1:0] [-1:0] [-1:0] [-1:446] [-1:1] [-1:1] [-1:0] [-1:1] [-1:1] [-1:173183] [-1:173183] [-1:173183] [-1:171720] [-1:171720] [-1:171720] [-1:173183] [-1:173183] [-1:171720] [-1:171720] [-1:173183] [-1:173183] [-1:173183] [-1:171720] [-1:171720] [-1:171720] [0:4914] [-1:30594] [-1:7701] [0:1] [0:1] [0:1] [-1:1059] [-1:15356] [-1:112403] [-1:159018] [-1:172366] [-1:138642] [-1:59] [-1:1063] [-1:1321] [-1:73] [-1:33446] [-1:8] [-1:6686] [-1:126937] [-1:15374] [-1:10] [-1:59] [-1:46] [-1:31395] [0:773] [0:4941] [-1:7628] [0:1] [-1:97638] [-1:127038] [-1:112164] [-1:172326] [-1:5288] [-1:160] [-1:93] [-1:655] [-1:1923] [-1:30594] [0:5012] [-1:22] [-1:21] [0:2] [-1:97782] [-1:171832] [-1:172329] [-1:4827] [-1:12436] [-1:33242] [-1:31319] [-1:8] [-1:130449] [-1:1828] [-1:6433] [-1:31533] [-1:123566] [-1:4968] [-1:140921] [-1:14826] [-1:146259] [-1:7978] [-1:7966] [-1:147260] [-1:7864] [-1:7867] [-1:147157] [-1:166569] [-1:170111] [-1:47] [-1:1278] [-1:56] [-1:1554] [-1:3519] [-1:35880] [-1:31] [-1:150347] [0:1] [-1:30] [-1:14822] [-1:76025] [-1:74125] [-1:2459] [-1:95] [-1:3764] [-1:31123] [-1:7564] [-1:130275] [-1:29] [0:1] [0:1] [0:1] [0:1] [0:1] [0:1] none [0:1] [0:1] [0:1] none [0:1] [0:1] [0:1] [0:1] none [0:1] [0:1] [0:1] [0:2] [0:1] [0:1] [0:6] [0:7] [0:4] [0:4] [0:5] [0:6] [0:57]
tree_sizes=3768 3761 3752 3787 3785 3796 3807 3804 3796 3794 3803 3796 3796 3797 3806 3797 3790 3813 3807 3806 3821 3813 3806 3813 3825 3796 3816 3823 3824 3816 3844 3807 3826 3822 3796 3828 3811 3823 3812 3819 3805 3815 3810 3811 3804 3816 3821 3817 3806 3824 3829 3827 3822 3812 3797 3819 3819 3823 3811 3805 3809 3810 3803 3823 3817 3799 3804 3808

Tree=0
num_leaves=31
num_cat=0
split_feature=118 174 71 94 94 127 143 71 94 71 71 94 127 71 94 144 132 1 94 98 94 125 129 94 126 110 87 137 71 94
split_gain=0.000309345 0.00013538 8.73652e-05 0.000100112 8.3755e-05 6.29812e-05 5.46557e-05 5.07831e-05 4.32234e-05 3.50468e-05 2.76668e-05 2.99888e-05 2.51209e-05 2.49644e-05 2.26819e-05 2.25478e-05 1.93123e-05 1.84176e-05 1.75583e-05 1.71847e-05 1.67489e-05 1.56492e-05 1.53064e-05 1.52931e-05 1.5189e-05 1.35795e-05 1.35055e-05 1.40847e-05 1.45574e-05 1.71069e-05
threshold=2925.5000000000005 2.5000000000000004 63726.500000000007 93962.500000000015 155957.50000000003 120005.50000000001 1492.5000000000002 17743.500000000004 155957.50000000003 127143.50000000001 88046.500000000015 89207.500000000015 121171.50000000001 145049.50000000003 40855.500000000007 58.500000000000007 35.500000000000007 -1.0000000180025095e-35 161414.50000000003 226.50000000000003 167552.50000000003 4468.5000000000009 75345.500000000015 140273.50000000003 3592.5000000000005 16672.500000000004 338.50000000000006 23063.500000000004 99037.500000000015 119149.50000000001
decision_type=2 2 2 2 2 2 2 2 2 2 2 2 2 2 2 2 2 2 2 2 2 2 2 2 2 2 2 2 2 2
left_child=5 12 3 6 15 8 24 22 10 -10 11 17 18 20 -7 -4 -12 19 -2 -1 -6 -19 -8 -5 -3 -24 27 -17 29 -29
right_child=1 2 4 23 13 14 7 -9 9 -11 16 -13 -14 -15 -16 26 -18 21 -20 -21 -22 -23 25 -25 -26 -27 -28 28 -30 -31
leaf_value=-0.0066485054000519064 -0.0072261427728265038 -0.0060656905230834059 -0.006929436641601461 -0.0024034234392531096 -0.0033407282838068863 -0.0062957495139601485 -0.0040798869433782753 -0.004988632267186887 -0.0042472562049217502 -0.007036855452209949 -0.0083336130620369278 -0.0060926447538342801 -0.0053495141910959026 -0.0051274393403203458 -0.0036844990022937237 -0.0067295753836346161 -0.0070376814164393262 -0.0080137845642942705 -0.0049796213774426301 0.00061431698189202163 -8.642088673197771e-05 -0.0067771267293645814 -0.0023186135720431617 0.00012849347088694777 -0.0047279802802509159 0.00053413066208110789 -0.0070069283927640565 -0.0047860643605216286 -0.0057536117091162601 -0.001434544467674826
leaf_weight=0.12414456384431127 0.51380724801310873 0.23599514489978901 0.31206689065584214 0.057413052893025451 0.050808845891879173 0.29282034830976034 0.03786895530174661 0.15765184154224698 0.067246787904878036 0.13635871634323848 0.63541172541408741 0.17046109730108583 0.099759803280903725 0.056048665961498045 0.037527859059991897 0.059807982572237961 0.14040107117762091 0.52393127472532797 0.037317394893761957 0.0033456475939601651 0.022962318696954753 0.12716362943501736 0.079809296315943357 0.040815448990542791 0.13255585750812315 0.02109717472558259 0.065461473295727046 0.063763250120246084 0.1048617337601172 0.020008568857520004
leaf_count=5182 21846 9666 13144 2069 1895 12084 1450 6229 2590 5763 27962 6988 3990 2225 1417 2503 5934 22831 1474 107 756 5330 2867 1332 5191 677 2764 2502 4251 695
internal_value=0 -0.00560305 -0.005086 -0.00433131 -0.0058481 -0.00727492 -0.0047715 -0.00376061 -0.00749346 -0.00611551 -0.00765612 -0.00729401 -0.00680971 -0.00353651 -0.00599911 -0.0063275 -0.00809908 -0.00755704 -0.00707403 -0.00645791 -0.00232778 -0.00777226 -0.00236554 -0.00135137 -0.00558456 -0.00172217 -0.00572909 -0.00539239 -0.00496843 -0.00398557
internal_weight=0 2.16988 1.519 0.763207 0.75579 2.25881 0.664978 0.296427 1.92846 0.203606 1.72486 0.949046 0.650884 0.12982 0.330348 0.62597 0.775813 0.778585 0.551125 0.12749 0.0737712 0.651095 0.138775 0.0982285 0.368551 0.100906 0.313903 0.248442 0.188634 0.0837718
internal_count=183714 87526 60216 29481 30735 96188 26080 11223 82687 8353 74334 40438 27310 4876 13501 25859 33896 33450 23320 5289 2651 28161 4994 3401 14857 3544 12715 9951 7448 3197
is_linear=0
shrinkage=0.1


Tree=1
num_leaves=31
num_cat=0
split_feature=118 174 87 110 71 94 71 94 95 71 84 71 94 95 127 71 147 71 71 71 94 94 94 94 144 36 123 94 123 94
split_gain=0.000305547 0.000128468 8.53624e-05 0.000110607 6.58547e-05 4.94298e-05 4.57517e-05 4.36183e-05 4.03402e-05 3.27725e-05 3.18529e-05 3.16504e-05 2.67924e-05 2.62592e-05 2.50249e-05 2.44739e-05 2.22445e-05 2.07555e-05 2.01698e-05 1.94336e-05 2.64114e-05 1.92182e-05 1.86248e-05 1.74152e-05 1.5135e-05 1.50262e-05 1.48067e-05 1.47685e-05 1.43763e-05 1.39894e-05
threshold=2925.5000000000005 2.5000000000000004 214.50000000000003 14986.500000000002 30028.500000000004 155957.50000000003 28739.500000000004 130057.50000000001 1422.5000000000002 127143.50000000001 30.500000000000004 105502.50000000001 155957.50000000003 2365.5000000000005 121171.50000000001 65642.500000000015 4377.5000000000009 149700.50000000003 92546.500000000015 103540.50000000001 97361.500000000015 111653.50000000001 54480.500000000007 161414.50000000003 59.500000000000007 6.5000000000000009 3631.5000000000005 159368.50000000003 4254.5000000000009 164824.50000000003
decision_type=2 2 2 2 2 2 2 2 2 2 2 2 2 2 2 2 2 2 2 2 2 2 2 2 2 2 2 2 2 2
left_child=4 14 3 6 8 10 13 26 22 -7 19 -9 15 -3 23 24 18 -14 21 20 -6 -5 28 -2 -4 -10 -8 -20 -1 -13
right_child=1 2 12 16 5 9 7 11 25 -11 -12 29 17 -15 -16 -17 -18 -19 27 -21 -22 -23 -24 -25 -26 -27 -28 -29 -30 -31
leaf_value=-0.0072409572792434349 -0.0068623294244793886 -0.0042951097203824916 -0.0057038670869887604 -0.002102690323896718 -0.007735701343270048 -0.0039088487708919305 -0.0063061750926638174 -0.0020417484784023658 -0.0050304515790049707 -0.006663737838817599 -0.0066157137974828008 -0.0056531434229926264 -0.0021597957531358561 -0.0019858350862715641 -0.0049569241505001901 -0.006547370789745619 0.0011746060031637454 -0.0059535390300897049 -0.0049318388207654209 -0.0083025495146461584 -0.0062553791473814423 0.0014989188213353167 -0.0038280479437402259 -0.0045960204173703563 -0.004103360115189505 -0.00037597580500149772 -0.0049264000566445918 -0.00076452376388545437 -0.0056143183924090775 -0.0027279033190436702
leaf_weight=0.2312889485019699 0.48830635729791549 0.12879289277771022 0.18739325785463734 0.089367407843383262 0.54301324971856935 0.064674972190914448 0.21768611464722198 0.062219502409789129 0.20004867978423135 0.12993855322201853 0.34721697953864339 0.069760027176016592 0.0368619069995475 0.079721105486896704 0.097043433655926492 0.26509358362636704 0.021341527797630988 0.023688411707553314 0.036942360931789153 0.37135254433997034 0.15490823265827203 0.017759936237780494 0.021733604760811431 0.036437231203308329 0.086290453726178384 0.007185090851635322 0.12101008988429385 0.011047030984627781 0.071015958743373631 0.02135232405635179
leaf_count=10466 21846 5155 7919 3272 25153 2536 9440 2255 8313 5763 15431 2955 1338 2878 3990 11668 677 1008 1526 17642 6765 552 854 1474 3415 246 4980 381 3019 797
internal_value=0 -0.0052264 -0.00471858 -0.00408998 -0.00692419 -0.00724257 -0.00465361 -0.0051797 -0.0059587 -0.00574822 -0.00744788 -0.00378034 -0.00563841 -0.00341221 -0.00643214 -0.00586256 -0.00185235 -0.00364398 -0.00226881 -0.00771811 -0.00740713 -0.0015056 -0.00665556 -0.00670496 -0.00519924 -0.00486907 -0.00581321 -0.00397253 -0.00685884 -0.00496761
internal_weight=0 2.09811 1.47633 0.877 2.14238 1.6111 0.700542 0.492028 0.531272 0.194614 1.41649 0.153332 0.599328 0.208514 0.621787 0.538777 0.176458 0.0605503 0.155117 1.06927 0.697921 0.107127 0.324039 0.524744 0.273684 0.207234 0.338696 0.0479894 0.302305 0.0911124
internal_count=183714 87526 60216 34868 96188 73290 28460 20427 22898 8299 64991 6007 25348 8033 27310 23002 6408 2346 5731 49560 31918 3824 14339 23320 11334 8559 14420 1907 13485 3752
is_linear=0
shrinkage=0.1


Tree=2
num_leaves=31
num_cat=0
split_feature=64 174 107 94 72 95 122 94 95 142 70 71 84 71 169 127 98 94 94 94 94 127 94 71 94 126 131 145 87 72
split_gain=0.000297915 0.000134518 9.17437e-05 9.69931e-05 6.07704e-05 5.28828e-05 4.52458e-05 4.33122e-05 3.19622e-05 3.13291e-05 3.69568e-05 2.93716e-05 2.79095e-05 2.4246e-05 2.18258e-05 2.12372e-05 2.11829e-05 2.47991e-05 1.95382e-05 1.94628e-05 1.74832e-05 1.68804e-05 3.63066e-05 1.60892e-05 2.11315e-05 1.58797e-05 1.58287e-05 1.48924e-05 1.45742e-05 1.37732e-05
threshold=2741.5000000000005 1.5000000000000002 35479.500000000007 159368.50000000003 40930.500000000007 1730.5000000000002 3758.5000000000005 155957.50000000003 1422.5000000000002 33354.500000000007 81798.500000000015 127143.50000000001 35.500000000000007 145049.50000000003 1.0000000180025095e-35 122336.50000000001 44.500000000000007 49710.500000000007 85808.500000000015 36089.500000000007 163460.50000000003 79969.500000000015 66064.500000000015 103540.50000000001 97361.500000000015 3684.5000000000005 306.50000000000006 1833.5000000000002 355.50000000000006 75002.500000000015
decision_type=2 2 2 2 2 2 2 2 2 2 2 2 2 2 2 2 2 2 2 2 2 2 2 2 2 2 2 2 2 2
left_child=4 15 5 6 8 18 9 12 19 10 14 -9 23 -5 29 20 17 -7 28 -1 25 26 -23 24 -6 -2 -8 -10 -3 -4
right_child=1 2 3 13 7 16 21 11 27 -11 -12 -13 -14 -15 -16 -17 -18 -19 -20 -21 -22 22 -24 -25 -26 -27 -28 -29 -30 -31
leaf_value=-0.0066896602276547788 -0.0071260239383871384 -0.0041450610984040048 -0.0041963637111964444 -0.0013434106404332158 -0.0075250543216005472 -0.002983149258745712 -0.00602335939139142 -0.003661668910898318 -0.0050204776244624624 -0.0066631205818758615 -0.0065043155468530794 -0.0064518908701359018 -0.0063847160191102528 -0.0040767469006713934 -0.0037264234633207494 -0.0048101869768444327 0.00067290778112907141 0.00016664689286756 -0.00014006750721610959 -0.0044210164453014501 -0.0040852054726907292 -0.0049292994449787707 -0.0019301295926404838 -0.0080829207618001997 -0.0060677709158460658 -0.00585852978010519 -0.0042383452555918594 -0.0021474757550049772 -0.0062040033535204061 -0.0060972636682397156
leaf_weight=0.2605084516781061 0.29393318709662697 0.19503913078551738 0.059720114184528716 0.081622520752716698 0.42811491135944357 0.17326132491871249 0.084666910321175237 0.057038585400732589 0.17875388770698919 0.24088570730236825 0.15787518059005379 0.11142844576170319 0.29655032649679924 0.053872550448431866 0.1444343089042377 0.082605512952795834 0.023014069216515054 0.029210083157522604 0.010703782969358144 0.044237306894501671 0.02714248428310384 0.092075383237897768 0.071867609574837843 0.3121803093872586 0.12963461128492781 0.14892394765956851 0.12021023019769927 0.020067862629730371 0.041736066878002021 0.10536985119506426
leaf_count=12285 14122 8078 2488 2908 21133 6703 3838 2278 7757 11234 7285 5197 13842 2220 5929 3516 753 981 364 1871 1117 3944 2697 15914 5931 6809 5075 763 1894 4788
internal_value=0 -0.00493493 -0.00449104 -0.0049518 -0.00665292 -0.00330974 -0.005269 -0.00700603 -0.00571683 -0.0057367 -0.00525925 -0.00550719 -0.0072225 -0.00243018 -0.00462419 -0.0062889 -0.00220196 -0.00252874 -0.00431907 -0.00636034 -0.0065488 -0.00437084 -0.00361455 -0.00750809 -0.00718635 -0.00669979 -0.00497601 -0.00473049 -0.00450799 -0.00540963
internal_weight=0 2.23817 1.68556 1.2126 1.83851 0.472964 1.07711 1.33495 0.503568 0.708285 0.467399 0.168467 1.16648 0.135495 0.309524 0.552605 0.225485 0.202471 0.247479 0.304746 0.47 0.36882 0.163943 0.86993 0.55775 0.442857 0.204877 0.198822 0.236775 0.16509
internal_count=183714 96743 71179 52406 86971 18773 47278 64295 22676 31724 20490 7475 56820 5128 13205 25564 8437 7684 10336 14156 22048 15554 6641 42978 27064 20931 8913 8520 9972 7276
is_linear=0
shrinkage=0.1


Tree=3
num_leaves=31
num_cat=0
split_feature=118 87 167 169 71 94 72 106 170 84 94 94 72 71 94 71 71 144 71 94 95 94 127 94 94 95 144 71 123 104
split_gain=0.000285034 0.000116501 9.57003e-05 7.31278e-05 6.72839e-05 5.03527e-05 4.94731e-05 3.75231e-05 3.6258e-05 3.48626e-05 3.15199e-05 3.04442e-05 2.87235e-05 2.76478e-05 2.61453e-05 2.45743e-05 2.24121e-05 2.20141e-05 2.12682e-05 2.96529e-05 2.05992e-05 2.00067e-05 1.80797e-05 1.67281e-05 1.63495e-05 1.63205e-05 1.53549e-05 1.72815e-05 1.46842e-05 1.44185e-05
threshold=2925.5000000000005 338.50000000000006 1.0000000180025095e-35 1.0000000180025095e-35 35123.500000000007 154595.50000000003 42295.500000000007 21848.500000000004 1.0000000180025095e-35 35.500000000000007 135501.50000000003 51072.500000000007 145081.50000000003 130440.50000000001 83090.500000000015 14482.500000000002 72059.500000000015 44.500000000000007 82959.500000000015 89207.500000000015 2413.5000000000005 159368.50000000003 132206.50000000003 158686.50000000003 148454.50000000003 2157.5000000000005 57.500000000000007 86139.500000000015 3996.5000000000005 1.0000000180025095e-35
decision_type=2 2 2 2 2 2 2 2 2 2 2 2 2 2 2 2 2 2 2 2 2 2 2 2 2 2 2 2 2 2
left_child=4 2 22 6 7 9 14 -1 16 18 26 15 -7 -12 17 25 20 -4 19 -6 -5 -10 23 -2 -18 -9 -8 28 -28 -3
right_child=1 29 3 8 5 12 10 11 21 -11 13 -13 -14 -15 -16 -17 24 -19 -20 -21 -22 -23 -24 -25 -26 -27 27 -29 -30 -31
leaf_value=-0.0065670428185927859 -0.0058919949091146865 -0.0072338075383081056 -0.0043801873140239013 -0.0019377149761873923 -0.0070481033903837809 -0.0035344760594163433 -0.0060856951500489961 -0.0050025157039153868 -0.0038843600739277891 -0.0058818202978623271 -0.0021716788696948702 -0.0024561553422822544 -0.0060272372779194292 -0.0051350337751300884 0.00023974078268882196 -0.0060062917470559384 -0.0038294065890681055 -0.0024438614416741242 -0.0075707157266360547 -0.0050243497750159238 0.00054962456654019168 -0.0004725850516461931 -0.0033221546085880557 -0.0034420382943325303 -0.0010592430916218803 -0.003060888246005743 -0.0046869957371008806 -0.0058990052809726901 -0.001933376455407698 -0.0056668645825270021
leaf_weight=0.15702352299558731 0.31413699834411057 0.069498334798481665 0.12241395905584795 0.085295008733737632 0.32351931236007636 0.074766032017578143 0.16644324820663314 0.12123077328215004 0.1922467174972553 0.30557203376338293 0.06743530659332464 0.050866916419181507 0.12109062440868001 0.059056799562313245 0.020893640776193934 0.15582412483490771 0.066377840461427695 0.11283337441273034 0.48187797183163639 0.093277157586271642 0.054613476919257664 0.018875068904890213 0.036089348201130633 0.030582749082896044 0.031376807392007322 0.067337811469769804 0.058298054729675641 0.067946180190119776 0.028999520978686633 0.37878777634250571
leaf_count=7781 14806 3504 5321 3308 16766 3091 7965 5561 8222 14775 2619 2031 5881 2675 710 7484 2868 4401 25755 4292 1850 668 1460 1240 1154 2771 2606 3233 1130 17786
internal_value=0 -0.00449167 -0.00407722 -0.0036233 -0.00619398 -0.00656269 -0.00425899 -0.00525929 -0.00262567 -0.00680453 -0.00489258 -0.00473976 -0.00507565 -0.00355521 -0.00315036 -0.00507705 -0.0017785 -0.00345145 -0.00711828 -0.0065952 -0.000966778 -0.00357933 -0.00545169 -0.00567464 -0.00294025 -0.00430916 -0.00541846 -0.00470309 -0.00377227 -0.00590979
internal_weight=0 1.9822 1.53391 1.15311 1.95239 1.4001 0.70432 0.552283 0.448785 1.20425 0.448179 0.39526 0.195857 0.126492 0.256141 0.344393 0.237663 0.235247 0.898674 0.416796 0.139908 0.211122 0.380809 0.34472 0.0977546 0.188569 0.321687 0.155244 0.0872976 0.448286
internal_count=183714 87526 66236 48730 96188 70560 30660 25628 18070 61588 20228 17847 8972 5294 10432 15816 9180 9722 46813 21058 5158 8890 17506 16046 4022 8332 14934 6969 3736 21290
is_linear=0
shrinkage=0.1


Tree=4
num_leaves=31
num_cat=0
split_feature=64 174 107 94 94 72 107 129 94 94 84 145 174 169 94 71 169 127 98 131 72 126 110 122 95 93 122 121 104 111
split_gain=0.00027075 0.000127684 8.0994e-05 9.29012e-05 6.94984e-05 6.21817e-05 5.61407e-05 4.36011e-05 4.24097e-05 3.73381e-05 3.15979e-05 2.6921e-05 2.64559e-05 2.55886e-05 2.42973e-05 2.36508e-05 2.09058e-05 1.99813e-05 1.92009e-05 1.78404e-05 1.76931e-05 1.74452e-05 1.65738e-05 1.65063e-05 1.62191e-05 1.50011e-05 1.4716e-05 1.45438e-05 1.41674e-05 1.41752e-05
threshold=2741.5000000000005 1.5000000000000002 74977.500000000015 93962.500000000015 154595.50000000003 57973.500000000007 26607.500000000004 40649.500000000007 154595.50000000003 55163.500000000007 46.500000000000007 1779.5000000000002 1.5000000000000002 1.0000000180025095e-35 46985.500000000007 127143.50000000001 1.0000000180025095e-35 122336.50000000001 48.500000000000007 765.50000000000011 151219.50000000003 3684.5000000000005 6392.5000000000009 3196.5000000000005 3479.5000000000005 589.50000000000011 5375.5000000000009 51336.500000000007 1.0000000180025095e-35 25662.500000000004
decision_type=2 2 2 2 2 2 2 2 2 2 2 2 2 2 2 2 2 2 2 2 2 2 2 2 2 2 2 2 2 2
left_child=5 17 3 6 13 9 7 -3 10 11 23 12 -1 19 -8 -10 -14 21 26 -4 -6 25 -5 27 -24 -2 -9 -7 -15 -30
right_child=1 2 4 22 20 8 14 18 15 -11 -12 -13 16 28 -16 -17 -18 -19 -20 -21 -22 -23 24 -25 -26 -27 -28 -29 29 -31
leaf_value=-0.0070929044878986509 -0.0050182593646093711 -0.0042853049688881184 -0.0059139119005707473 -0.002582580750297124 -0.0015210190575927181 -0.0065763587908402371 -0.0052088908591217033 -0.0025123998816430886 -0.0032239661978416346 -0.0033847077831421837 -0.0052283183326625217 -0.003309675550822214 -0.0057978927813020767 -0.0063128106286271038 -0.0035796940863577053 -0.0057545403190755948 -0.0041482429095702758 -0.0041281024020924815 0.00041652195920421757 -0.0041160941647736459 -0.0036763482003577246 -0.0049796554140416607 -0.00049684108615032552 -0.0063919252186063055 0.0028401161600841176 -0.0067192921594562242 0.00017807085667702975 -0.007793965839844718 -0.0037563598074357714 -0.0063592770824793662
leaf_weight=0.10637414757547958 0.068078611051533122 0.11024517921941857 0.27900254779160605 0.028215671029101941 0.075630847702996107 0.15905663393277769 0.18252861502151063 0.19372209991161071 0.055204985088494141 0.10310451067562099 0.13240803771441279 0.052097594667429803 0.25485576114624597 0.02995105656736996 0.18363400857742818 0.11158011216866726 0.10996968679501151 0.079147645094053587 0.031388330660774955 0.06880978286244499 0.07672479145185207 0.149300689350639 0.069439211227290798 0.34585950189284631 0.01843177822411235 0.21740396608583978 0.022713430642397725 0.2559697422930185 0.21762452815710276 0.023147580439399462
leaf_count=5694 3332 4987 14001 1122 2833 8595 8587 7748 2295 4559 6531 2297 12871 1524 8037 5652 5155 3516 1071 3174 3325 7215 2498 18611 548 11501 794 14711 9735 1195
internal_value=0 -0.00421708 -0.0037793 -0.00310022 -0.00451955 -0.00591397 -0.00352118 -0.00263084 -0.00638074 -0.00512405 -0.00665404 -0.00546675 -0.00570524 -0.00499078 -0.00439183 -0.00491693 -0.00530064 -0.00558953 -0.00189485 -0.00555824 -0.00260642 -0.00585557 -0.000473966 -0.00690214 0.000203118 -0.00631365 -0.00223005 -0.00732732 -0.00426175 -0.0040066
internal_weight=0 2.12514 1.61121 0.840318 0.770891 1.68648 0.724232 0.358069 1.06008 0.626402 0.893294 0.523297 0.4712 0.618535 0.366163 0.166785 0.364825 0.513931 0.247824 0.347812 0.152356 0.434783 0.116087 0.760886 0.087871 0.285483 0.216436 0.415026 0.270723 0.240772
internal_count=183714 96743 71179 35392 35787 86971 31224 14600 56395 30576 48448 26017 23720 29629 16624 7947 18026 25564 9613 17175 6158 22048 4168 41917 3046 14833 8542 23306 12454 10930
is_linear=0
shrinkage=0.1


Tree=5
num_leaves=31
num_cat=0
split_feature=64 174 142 137 107 72 131 94 94 125 129 98 169 33 93 104 95 107 143 94 119 109 147 34 127 104 94 94 72 94
split_gain=0.000249852 0.000114753 7.83968e-05 9.01483e-05 6.14709e-05 5.27157e-05 4.90562e-05 4.61218e-05 3.69078e-05 3.66598e-05 3.50388e-05 2.93344e-05 2.6931e-05 2.62987e-05 2.06606e-05 1.99174e-05 1.93417e-05 1.90922e-05 2.06312e-05 1.98405e-05 2.38639e-05 1.86337e-05 1.8493e-05 1.84887e-05 1.65276e-05 1.60964e-05 1.57085e-05 1.54904e-05 1.91302e-05 2.18405e-05
threshold=2741.5000000000005 1.5000000000000002 33394.500000000007 23282.500000000004 34114.500000000007 79770.500000000015 567.50000000000011 93962.500000000015 164824.50000000003 3725.5000000000005 40649.500000000007 38.500000000000007 1.0000000180025095e-35 1.0000000180025095e-35 51884.500000000007 1.0000000180025095e-35 4250.5000000000009 30703.500000000004 1591.5000000000002 150500.50000000003 126950.50000000001 4301.5000000000009 4374.5000000000009 1.0000000180025095e-35 115936.50000000001 1.5000000000000002 153229.50000000003 160733.50000000003 115117.50000000001 100762.50000000001
decision_type=2 2 2 2 2 2 2 2 2 2 2 2 2 2 2 2 2 2 2 2 2 2 2 2 2 2 2 2 2 2
left_child=4 15 3 23 10 7 12 11 14 24 -1 16 -6 -8 25 -2 22 18 -17 -19 -21 -12 -5 -3 -4 -7 -15 28 29 -14
right_child=1 2 9 5 6 8 13 -9 -10 -11 21 -13 27 26 -16 17 -18 19 -20 20 -22 -23 -24 -25 -26 -27 -28 -29 -30 -31
leaf_value=-0.0057128369062249152 -0.0067311582370010066 -0.0029051661316240019 -0.0054767241067398241 -0.0028427700048223215 -0.0067552575116054669 -0.0044122576228101638 -0.0036551531945375327 0.00059057410779536407 -0.00038543274878701336 -0.003448981097583995 -0.004408502585802279 0.0010137558795968152 -0.0057200730006573327 -0.0058007370944230321 -0.0015129146603442556 -0.0048791728246035358 0.00030123886646869741 -0.0057383010852058453 -0.0021656437273281054 -0.0012208338594979248 -0.0054964226673539758 -0.0026387794837647561 -1.1179163913563796e-06 -0.0049359044325111515 -0.0036511687167953724 -0.002340268860195747 -0.0040772049201964382 -0.0028380668692632068 -0.0070472424540758199 -0.0027452875702187315
leaf_weight=0.14344346403959241 0.073184002096240874 0.056465491821654723 0.25892953887705505 0.28686106500390451 0.54377726562779549 0.21239298629006953 0.10316196711391967 0.074028720744536258 0.037145848807995208 0.21934212900760031 0.16266111719050969 0.027152957123689703 0.10840166741672874 0.27975215545575338 0.036775843234863714 0.076026878768971407 0.024516394365491578 0.25089343393210584 0.044372332275088411 0.023382451095130818 0.029553840843618673 0.093807630370974948 0.024888571017072536 0.217624160123705 0.061341521461145021 0.045530823159424472 0.065206086281250464 0.020403050930326572 0.072056983008224051 0.031955826585544855
leaf_count=7604 4074 2436 13242 12227 31363 10173 4978 2519 1339 9908 7875 901 5956 15218 1496 3785 872 13383 1859 953 1510 4146 898 10485 2738 1945 3135 914 4327 1455
internal_value=0 -0.00388272 -0.0034664 -0.00296031 -0.00553767 -0.00240548 -0.00588917 -0.00168449 -0.00335591 -0.00444496 -0.00446123 -0.00214792 -0.00636993 -0.00505601 -0.00373033 -0.00520763 -0.00240322 -0.00494481 -0.00387912 -0.00536711 -0.00360786 -0.0037612 -0.00261591 -0.00451755 -0.00512708 -0.00404649 -0.00547494 -0.00546996 -0.00572276 -0.00504279
internal_weight=0 2.08041 1.583 1.04338 1.62463 0.769293 1.22472 0.437448 0.331846 0.539613 0.399912 0.363419 0.776595 0.44812 0.2947 0.497413 0.336266 0.424229 0.120399 0.30383 0.0529363 0.256469 0.31175 0.27409 0.320271 0.257924 0.344958 0.232818 0.212414 0.140357
internal_count=183714 96743 71179 45291 86971 32370 67346 17417 14953 25888 19625 14898 44015 23331 13614 25564 13997 21490 5644 15846 2463 12021 13125 12921 15980 12118 18353 12652 11738 7411
is_linear=0
shrinkage=0.1


Tree=6
num_leaves=31
num_cat=0
split_feature=118 174 104 126 124 125 124 127 131 132 129 104 94 72 72 94 132 169 72 94 169 169 170 29 131 170 27 143 69 95
split_gain=0.000231957 0.00013099 8.27535e-05 7.04243e-05 6.83268e-05 4.96356e-05 4.17862e-05 2.89834e-05 2.80231e-05 2.50863e-05 2.43388e-05 2.42974e-05 2.39989e-05 2.75098e-05 2.35135e-05 2.30377e-05 2.25324e-05 2.1743e-05 2.11208e-05 2.46226e-05 2.0833e-05 2.00181e-05 1.98797e-05 1.72254e-05 1.83792e-05 1.5864e-05 1.58227e-05 1.49161e-05 1.45356e-05 1.38648e-05
threshold=2288.5000000000005 1.5000000000000002 1.5000000000000002 3742.5000000000005 31341.500000000004 4439.5000000000009 35991.500000000007 129888.50000000001 765.50000000000011 36.500000000000007 41086.500000000007 1.5000000000000002 131418.50000000003 117838.50000000001 42295.500000000007 164142.50000000003 29.500000000000004 1.0000000180025095e-35 91325.500000000015 68104.500000000015 1.0000000180025095e-35 1.0000000180025095e-35 1.0000000180025095e-35 36741.500000000007 605.50000000000011 1.0000000180025095e-35 2.5000000000000004 1717.5000000000002 11053.500000000002 2841.5000000000005
decision_type=2 2 2 2 2 2 2 2 2 2 2 2 2 2 2 2 2 2 2 2 2 2 2 2 2 2 2 2 2 2
left_child=5 11 3 4 10 6 9 12 20 21 -3 18 26 -14 -4 29 -8 -12 19 27 -6 -1 -22 -7 -25 -19 -5 -2 -18 -16
right_child=1 2 14 7 8 23 16 -9 -10 -11 17 -13 13 -15 15 -17 28 25 -20 -21 22 -23 -24 24 -26 -27 -28 -29 -30 -31
leaf_value=-0.0056506887413823662 -0.0057485911203207386 -0.0044561357406463142 -0.00052078229110353593 -0.0035112860642265197 -0.0058509973883993753 -0.0029006243015580625 -0.0066223584239895276 -0.00096561785769796516 -0.0032806899445424875 -0.0024288642904559581 -0.0035154160869531842 -0.0035062784774492397 0.00038212483511800206 -0.0028900554759031635 -0.0034160630080439965 0.00021090206772877244 -0.0065429491240487567 -0.0010880399196135464 -0.0060799212122680957 -0.0026725552674013251 -0.0032746015316351984 -0.0040432603131043566 -0.0053382793917048687 -0.0055404390194630825 -0.0032450946963790382 -0.0030655119293749242 0.0016802326445527857 -0.0040447069178127957 -0.0046204034590732208 -0.0015782511663428593
leaf_weight=0.24992251428375334 0.14996842194887028 0.1191320289572102 0.099129541211368521 0.3107084455077711 0.23279568556245067 0.082158849220832053 0.41633242609987064 0.086838969125892618 0.090804130927608639 0.037302886428733473 0.19765858485061472 0.089825525534251938 0.040263243542540295 0.070998703775330796 0.12240764890339051 0.029485902492524474 0.059468870463206258 0.09206244383858575 0.2006696504276988 0.047976755009585759 0.082688590414363716 0.11228085004040622 0.10719070064624248 0.09540495544206351 0.054991864504700061 0.0725308761557244 0.0059837788812728823 0.078151591855203151 0.11610478812326619 0.061761735100844817
leaf_count=13878 8332 5929 3807 14674 12829 3863 25527 3362 4318 1720 9090 4430 1438 3227 5809 1050 3454 3648 11529 2268 3893 5712 5679 5486 2711 3221 207 3882 6131 2610
internal_value=0 -0.00368696 -0.00327409 -0.00358081 -0.00407212 -0.0053799 -0.00568832 -0.00263133 -0.00487454 -0.00489809 -0.00321621 -0.00501496 -0.00296933 -0.00170593 -0.00179367 -0.00238426 -0.00622169 -0.00280844 -0.00529921 -0.00473178 -0.00521695 -0.0051524 -0.00443959 -0.00406505 -0.00470116 -0.00195945 -0.00341319 -0.00516486 -0.00527159 -0.00279975
internal_weight=0 2.38903 1.82244 1.50966 0.994863 1.22397 0.991412 0.514793 0.513479 0.399506 0.481384 0.566592 0.427954 0.111262 0.312785 0.213655 0.591906 0.362252 0.476766 0.276097 0.422675 0.362203 0.189879 0.232556 0.150397 0.164593 0.316692 0.22812 0.175574 0.184169
internal_count=183714 115232 84791 71515 48607 68482 56422 22908 26719 21310 21888 30441 19546 4665 13276 9469 35112 15959 26011 14482 22401 19590 9572 12060 8197 6869 14881 12214 9585 8419
is_linear=0
shrinkage=0.1


Tree=7
num_leaves=31
num_cat=0
split_feature=118 87 167 174 169 169 82 73 95 170 122 72 170 71 131 145 33 143 125 94 145 94 94 119 104 126 94 71 84 76
split_gain=0.000213143 8.62339e-05 8.23299e-05 7.93009e-05 6.38615e-05 5.61687e-05 5.28291e-05 4.80662e-05 3.82386e-05 3.43923e-05 3.0094e-05 2.82956e-05 2.8108e-05 2.54462e-05 2.25247e-05 2.22799e-05 2.12705e-05 1.88767e-05 1.85057e-05 1.8269e-05 1.7793e-05 1.77421e-05 1.76246e-05 1.76165e-05 1.67241e-05 1.62698e-05 1.59497e-05 1.71598e-05 1.59014e-05 1.58621e-05
threshold=3079.5000000000005 338.50000000000006 1.0000000180025095e-35 1.5000000000000002 1.0000000180025095e-35 1.0000000180025095e-35 11922.500000000002 46046.500000000007 3054.5000000000005 1.0000000180025095e-35 3491.5000000000005 45705.500000000007 1.0000000180025095e-35 85508.500000000015 733.50000000000011 2585.5000000000005 1.0000000180025095e-35 1591.5000000000002 3705.5000000000005 44941.500000000007 2498.5000000000005 158003.50000000003 164824.50000000003 22303.500000000004 1.0000000180025095e-35 5248.5000000000009 123236.50000000001 24203.500000000004 35.500000000000007 62.500000000000007
decision_type=2 2 2 2 2 2 2 2 2 2 2 2 2 2 2 2 2 2 2 2 2 2 2 2 2 2 2 2 2 2
left_child=3 2 17 18 6 8 7 15 11 13 -8 19 29 -6 -13 28 -10 -2 -1 20 -4 -11 -12 -19 -3 -18 27 -14 -5 -7
right_child=1 24 5 4 9 12 10 -9 16 21 22 14 26 -15 -16 -17 25 23 -20 -21 -22 -23 -24 -25 -26 -27 -28 -29 -30 -31
leaf_value=-0.0065165640038178504 -0.0050194842542053359 -0.0060723171843963626 -0.0032651522540815508 -0.005098751220013637 -0.0015160593639448182 -0.00086744740430354261 -0.0050055928802172668 -0.0063981256150149454 0.00014695973459116559 -0.0044446076091161002 -0.0034284163741022501 -0.0045275430813172509 -0.0014321734173309553 -0.0038759433844958026 -0.0022591737298265544 -0.00050943892097978492 -0.0027896681503196082 -0.00097184642207136696 -0.0050491717857312143 -0.00037478733881621284 0.00047578177187605785 -0.0014084353535477783 0.00030521953802687676 -0.0038617258266378223 -0.0042004907577442895 0.00084051725789319057 -0.00091591640058643654 -0.0037718300406145975 -0.0032630312380649736 0.0029555188503722126
leaf_weight=0.23969671339818877 0.14153036378684158 0.056017072480244678 0.14146688139862817 0.24593090896451053 0.12668860985104402 0.21207396224144759 0.15466880196254351 0.26507088473226759 0.047858304288638465 0.20877410563025478 0.23279071515753458 0.2140878381615039 0.049507507984344556 0.071468055888544768 0.05502728174906224 0.012937755187522271 0.10312444226292428 0.024175457348064811 0.13398323650017119 0.034158222553742235 0.013969749485113425 0.021200999693064659 0.013369286698434735 0.16549239608139032 0.32273803584030236 0.01402497103845235 0.056777948852868576 0.085461521906836424 0.058390502133079281 0.011438631198871008
leaf_count=15081 7547 3328 6546 13934 5714 8493 8900 16654 1800 11484 12085 11196 2026 3874 2515 536 4749 945 7701 1311 509 930 525 8280 16770 515 2309 4189 2923 345
internal_value=0 -0.00314178 -0.00277259 -0.0046951 -0.00435212 -0.00233494 -0.00479602 -0.00540418 -0.00293488 -0.00333274 -0.00391247 -0.00340449 -0.00143382 -0.00236719 -0.00406372 -0.00457374 -0.00162939 -0.00414553 -0.00599043 -0.00246877 -0.00292894 -0.00416471 -0.00322564 -0.00349338 -0.00447733 -0.00235507 -0.00232209 -0.00291363 -0.00474653 -0.000671801
internal_weight=0 1.74893 1.37018 1.78497 1.41129 1.03898 0.983159 0.58233 0.623718 0.428132 0.400829 0.45871 0.41526 0.198157 0.269115 0.317259 0.165008 0.331198 0.37368 0.189595 0.155437 0.229975 0.24616 0.189668 0.378755 0.117149 0.191747 0.134969 0.304321 0.223513
internal_count=183714 83373 63275 100341 77559 46503 55557 34047 29141 22002 21510 22077 17362 9588 13711 17393 7064 16772 22782 8366 7055 12414 12610 9225 20098 5264 8524 6215 16857 8838
is_linear=0
shrinkage=0.1


Tree=8
num_leaves=31
num_cat=0
split_feature=118 87 167 169 71 107 125 132 170 94 131 95 71 131 94 94 122 94 104 65 122 95 94 72 125 129 69 63 137 147
split_gain=0.0001945 0.000113786 9.0451e-05 6.49291e-05 4.78942e-05 4.48623e-05 3.73474e-05 3.4091e-05 3.28918e-05 2.95772e-05 2.49485e-05 2.43013e-05 2.53694e-05 2.38192e-05 2.36581e-05 2.10478e-05 2.0757e-05 1.97251e-05 1.9677e-05 2.15588e-05 1.95738e-05 1.86919e-05 1.77967e-05 2.36005e-05 1.71524e-05 1.70923e-05 1.68474e-05 1.66918e-05 1.54149e-05 1.52929e-05
threshold=2288.5000000000005 338.50000000000006 1.0000000180025095e-35 1.0000000180025095e-35 56674.500000000007 26607.500000000004 3335.5000000000005 42.500000000000007 1.0000000180025095e-35 96681.500000000015 805.50000000000011 1450.5000000000002 20986.500000000004 588.50000000000011 158003.50000000003 23812.500000000004 3795.5000000000005 151864.50000000003 1.0000000180025095e-35 1.0000000180025095e-35 4159.5000000000009 3635.5000000000005 143002.50000000003 148492.50000000003 5340.5000000000009 153096.50000000003 12165.500000000002 5418.5000000000009 37879.500000000007 2253.5000000000005
decision_type=2 2 2 2 2 2 2 2 2 2 2 2 2 2 2 2 2 2 2 2 2 2 2 2 2 2 2 2 2 2
left_child=4 2 18 5 9 15 22 14 24 11 16 20 -13 21 -6 -4 -3 28 -2 27 -1 -8 -7 -24 25 -5 -18 29 -10 -20
right_child=1 10 3 8 7 6 13 -9 17 -11 -12 12 -14 -15 -16 -17 26 -19 19 -21 -22 -23 23 -25 -26 -27 -28 -29 -30 -31
leaf_value=-0.0053284033638739715 -0.005748740423430751 -0.0051498550511514148 -0.0020558237732911113 -0.00063989967189088872 -0.0057969162414733587 -0.0044148394789198945 -0.0034683540855949325 -0.0036811098607013402 -0.0042629457370279306 -0.0013600473877191813 -0.0028150608876137458 -0.002067145938605559 -0.0044113623273466084 -0.0011341034852159538 -0.0038641592427774716 0.00058432964359820638 -0.0050022778610144874 -3.889886008200035e-05 -0.003827338122564711 -0.0026789577431119461 -0.0033612622539507908 -0.0007634687524121455 -0.0010428644433962719 -0.0049172115417741901 0.0017028767166085805 -0.0031562914097131843 -0.0028200161919191297 -0.0050092359060326672 -0.002187079066398452 -0.0003664001555628636
leaf_weight=0.18297663416979071 0.054817388348055829 0.29663228892059113 0.18197299212442886 0.22186123777555622 0.48169204029454704 0.25424459698024293 0.17571908903391886 0.11956713648305595 0.045428496825479669 0.04168958754689811 0.086875173685257323 0.089518694967409829 0.095324631167386542 0.091296986137422209 0.072919807591460994 0.036203439070050081 0.059154836887501006 0.034113326246369979 0.083918628867650225 0.12916779972510994 0.069908847054648504 0.029894313600379974 0.03988564610517642 0.025953146922802262 0.027063693491072627 0.030731570112038753 0.088010883507195103 0.13544620147240494 0.168286147814797 0.015058375536682433
leaf_count=11086 3249 17481 8030 8964 31699 14068 8961 6476 2357 1879 4364 4192 5523 3999 3940 1325 3321 1311 4363 6277 3687 1261 1660 1449 937 1433 4412 7597 7787 626
internal_value=0 -0.00307949 -0.00269654 -0.00230165 -0.00466927 -0.00285023 -0.00328606 -0.00521262 -0.00143307 -0.00390518 -0.00436478 -0.00414758 -0.00327607 -0.00247825 -0.0055428 -0.00161773 -0.00466815 -0.0022719 -0.00398259 -0.00371632 -0.0047846 -0.00307509 -0.00403539 -0.0025701 -0.000689705 -0.000946055 -0.0036972 -0.0042879 -0.00262834 -0.00330079
internal_weight=0 2.31174 1.78106 1.36265 1.1536 0.83517 0.616994 0.674179 0.527484 0.479418 0.530673 0.437729 0.184843 0.29691 0.554612 0.218176 0.443798 0.247828 0.418408 0.363591 0.252885 0.205613 0.320083 0.0658388 0.279657 0.252593 0.147166 0.234423 0.213715 0.098977
internal_count=183714 115232 85654 63542 68482 40753 31398 42115 22789 26367 29578 24488 9715 14221 35639 9355 25214 11455 22112 18863 14773 10222 17177 3109 11334 10397 7733 12586 10144 4989
is_linear=0
shrinkage=0.1


Tree=9
num_leaves=31
num_cat=0
split_feature=118 174 174 125 143 124 125 69 33 80 115 71 94 94 107 169 145 94 144 131 104 127 122 94 72 125 170 29 84 95
split_gain=0.000171866 7.71744e-05 7.31672e-05 5.94322e-05 5.69493e-05 5.27381e-05 3.03845e-05 3.00416e-05 2.9842e-05 2.90353e-05 2.59268e-05 2.585e-05 3.09376e-05 2.29653e-05 2.14077e-05 2.1174e-05 2.21196e-05 2.10903e-05 1.9603e-05 1.92087e-05 1.90084e-05 1.87055e-05 1.85066e-05 1.74664e-05 1.89311e-05 1.68042e-05 1.65755e-05 1.63841e-05 1.62557e-05 1.57713e-05
threshold=3253.5000000000005 1.5000000000000002 2.5000000000000004 3845.5000000000005 1672.5000000000002 35991.500000000007 5763.5000000000009 11695.500000000002 1.0000000180025095e-35 3335.5000000000005 587.50000000000011 48441.500000000007 67424.500000000015 119149.50000000001 30703.500000000004 1.0000000180025095e-35 2610.5000000000005 162096.50000000003 33.500000000000007 630.50000000000011 1.5000000000000002 61352.500000000007 3479.5000000000005 161414.50000000003 34113.500000000007 5878.5000000000009 1.0000000180025095e-35 44957.500000000007 35.500000000000007 2133.5000000000005
decision_type=2 2 2 2 2 2 2 2 2 2 2 2 2 2 2 2 2 2 2 2 2 2 2 2 2 2 2 2 2 2
left_child=1 19 14 5 6 15 11 -7 29 27 20 12 -4 -13 18 16 28 22 -2 21 25 -1 -16 24 -11 -10 -17 -5 -3 -6
right_child=2 3 4 9 8 7 -8 -9 10 23 -12 13 -14 -15 17 26 -18 -19 -20 -21 -22 -23 -24 -25 -26 -27 -28 -29 -30 -31
leaf_value=-0.0064671445949830014 -0.0037514565624399768 -0.0043623067117500693 -0.0027084480167682617 -0.0025823755969459428 -0.004600172327199367 -0.0054278512529515408 -0.00021765636932084733 -0.0039116377302114659 -0.0025102157917539173 -0.0010108505480047516 0.00077623439228121033 -0.0043601399918852301 0.00035145019503831265 -0.0026221060708201543 -0.0050733734584651746 -0.0013132092378145609 0.00022946756508197906 -0.0014386289520689662 -0.0013371080114740657 -0.004095640188881049 -0.00061481300393763187 -0.0048009046168120267 -0.0034438176465061035 0.00053627360961699749 -0.0028649259448819374 0.00055469359044743973 -0.0034034702831057932 -0.004544103229107606 -0.0024007207263583297 0.00046498436181664033
leaf_weight=0.14579904719903414 0.069945540363732905 0.21721796461952203 0.22189658364095499 0.072543886019047932 0.006564590627931465 0.29678294038058084 0.042600151994520274 0.23348464755235909 0.30083188735352451 0.077238613513145538 0.037271219029207714 0.17486122095851897 0.038823704849164642 0.13450331311742048 0.15833571615621622 0.078589131104308763 0.013083800863569195 0.027157295262441039 0.064771869011565286 0.10348255520148086 0.081211685224843677 0.12525550229111104 0.12448700157256098 0.023034942376398249 0.19188224545177945 0.019019809368728602 0.073341034566510643 0.10305263383634156 0.052446965662056755 0.096701387898974644
leaf_count=10329 3852 12756 10574 3649 336 19525 1727 13864 14280 3428 1333 9706 1456 6496 9702 3614 533 1226 2848 6105 3314 7756 6753 915 10408 724 3918 6303 2640 3644
internal_value=0 -0.00397659 -0.00255327 -0.00364247 -0.00213341 -0.0040909 -0.00279381 -0.00476024 -0.00138633 -0.0027174 -0.00174661 -0.00298631 -0.0022528 -0.00360449 -0.00364311 -0.00327437 -0.00378597 -0.00410051 -0.00259064 -0.00525467 -0.00198107 -0.00569717 -0.00435611 -0.00210659 -0.0023328 -0.00232796 -0.00232224 -0.00373366 -0.0039808 0.000142994
internal_weight=0 1.80724 1.59898 1.4327 1.15429 0.964946 0.612685 0.530268 0.541601 0.467752 0.438335 0.570085 0.26072 0.309365 0.444697 0.434679 0.282749 0.30998 0.134717 0.374537 0.401063 0.271055 0.282823 0.292156 0.269121 0.319852 0.15193 0.175597 0.269665 0.103266
internal_count=183714 105743 77971 81553 53590 56850 29959 33389 23631 24703 19651 28232 12030 16202 24381 23461 15929 17681 6700 24190 18318 18085 16455 14751 13836 15004 7532 9952 15396 3980
is_linear=0
shrinkage=0.1


Tree=10
num_leaves=31
num_cat=0
split_feature=118 142 0 147 122 125 107 94 73 168 71 94 71 82 94 85 69 33 132 169 141 174 131 109 168 127 94 174 132 145
split_gain=0.000157929 0.000100627 0.000113526 7.00548e-05 4.6901e-05 4.42506e-05 4.36726e-05 6.91698e-05 3.95296e-05 3.28726e-05 3.24659e-05 3.71163e-05 2.88692e-05 2.50284e-05 2.49866e-05 2.44222e-05 2.37949e-05 2.36329e-05 2.26656e-05 2.16963e-05 2.1577e-05 2.04142e-05 1.78364e-05 1.65707e-05 1.6201e-05 1.60341e-05 2.03669e-05 1.58939e-05 1.48409e-05 1.41976e-05
threshold=2288.5000000000005 33394.500000000007 11363.500000000002 4374.5000000000009 3758.5000000000005 4915.5000000000009 137566.50000000003 131418.50000000003 53162.500000000007 1.0000000180025095e-35 9281.5000000000018 156640.50000000003 18392.500000000004 11400.500000000002 152546.50000000003 4.5000000000000009 12039.500000000002 1.0000000180025095e-35 36.500000000000007 1.0000000180025095e-35 33289.500000000007 1.5000000000000002 1001.5000000000001 1873.5000000000002 1.0000000180025095e-35 117678.50000000001 162778.50000000003 2.5000000000000004 39.500000000000007 975.50000000000011
decision_type=2 2 2 2 2 2 2 2 2 2 2 2 2 2 2 2 2 2 2 2 2 2 2 2 2 2 2 2 2 2
left_child=5 2 10 6 21 8 7 9 18 12 -2 17 15 -6 -8 -4 -10 -12 19 29 -5 -3 -18 -14 -21 26 28 -25 -23 -1
right_child=1 4 3 20 13 -7 14 -9 16 -11 11 -13 23 -15 -16 -17 22 -19 -20 24 -22 25 -24 27 -26 -27 -28 -29 -30 -31
leaf_value=-0.0045898489582278301 -0.0014089547537543459 -0.0050649039521394002 -0.0024218658026487765 -0.0010198511695117371 -0.0040273066807128659 -0.0024110272494698905 -0.0048125025182961514 0.0012662305619248826 -0.0056051558989982236 -0.0052837833272638517 -0.0021126202283480405 -0.0010500771562701396 -0.0065407810142440086 -0.0020268163853114324 -0.0017538284120479535 0.00028421332481502027 -0.0045114565609429757 -0.0040521736101684939 -0.0017108178861390902 -0.0025797191928902084 0.0025076186835652722 -0.0044568379317880954 -0.0017456612042825528 -0.0032176478518575243 -0.0070066661212067095 -0.0022458793457068456 -0.0010070167005873849 -0.0015741704067851127 -0.0019982915777562657 -0.0024995855956519396
leaf_weight=0.28029645408332748 0.097152309333978559 0.1397121076752228 0.045843916206649737 0.024550653225560382 0.08268748747286736 0.14996216128383821 0.059558168906733044 0.092212772158745793 0.2466790057342223 0.024405986483543529 0.075799050626301323 0.059000607002417382 0.0080278993309548241 0.25667564778723317 0.04842197330435738 0.12237960272523196 0.1662546012967141 0.36695271609551128 0.053359662457296508 0.13219066551846481 0.059045748034805001 0.23791084954882524 0.027120205533719854 0.07591819552544643 0.0088181626224468346 0.067111173209923436 0.021558497701335 0.26164389337191074 0.027378471467272902 0.036755913252818573
leaf_count=17916 4295 9120 2248 1101 4593 8145 3598 3370 17658 1529 3663 2503 511 12644 2265 4726 10930 20637 2669 7181 1986 14372 1397 4301 632 3204 958 12212 1396 1954
internal_value=0 -0.0025466 -0.00203499 -0.00127203 -0.00341924 -0.00400759 -0.00158265 -0.00126437 -0.00425923 -0.00169793 -0.00308218 -0.00340615 -0.00152761 -0.00251425 -0.00344089 -0.000453242 -0.00495409 -0.00372012 -0.00366133 -0.00388855 0.00147167 -0.00404136 -0.00412356 -0.00205058 -0.00285656 -0.00363735 -0.0039629 -0.00194379 -0.00420311 -0.00434752
internal_weight=0 2.25395 1.42091 0.822009 0.833034 1.10144 0.738412 0.630432 0.951475 0.538219 0.598905 0.501752 0.513814 0.339363 0.10798 0.168224 0.440054 0.442752 0.511421 0.458061 0.0835964 0.493671 0.193375 0.34559 0.141009 0.353959 0.286848 0.337562 0.265289 0.317052
internal_count=183714 115232 68945 37847 46287 68482 34760 28897 60337 25527 31098 26803 23998 17237 5863 6974 29985 24300 30352 27683 3087 29050 12327 17024 7813 19930 16726 16513 15768 19870
is_linear=0
shrinkage=0.1


Tree=11
num_leaves=31
num_cat=0
split_feature=169 72 94 170 94 95 71 131 145 174 94 72 94 71 64 71 94 136 118 142 106 71 126 70 118 94 122 128 104 94
split_gain=0.00013654 9.34739e-05 0.000100129 8.32066e-05 5.23172e-05 5.04058e-05 4.42051e-05 4.22516e-05 3.59344e-05 3.41772e-05 3.29949e-05 2.75698e-05 2.9967e-05 2.73929e-05 2.56031e-05 2.39599e-05 2.40264e-05 2.20719e-05 2.1212e-05 1.89345e-05 2.29025e-05 1.84579e-05 1.8322e-05 1.79503e-05 1.79291e-05 1.73872e-05 1.71764e-05 1.69251e-05 1.54615e-05 1.51809e-05
threshold=1.0000000180025095e-35 98794.500000000015 106885.50000000001 1.0000000180025095e-35 163460.50000000003 1936.5000000000002 21636.500000000004 765.50000000000011 968.50000000000011 2.5000000000000004 154595.50000000003 144398.50000000003 122553.50000000001 148350.50000000003 3657.5000000000005 70124.500000000015 77638.500000000015 1.0000000180025095e-35 3059.5000000000005 48900.500000000007 46264.500000000007 15132.500000000002 5305.5000000000009 97015.500000000015 1741.5000000000002 129376.50000000001 3037.5000000000005 4524.5000000000009 1.5000000000000002 100762.50000000001
decision_type=2 2 2 2 2 2 2 2 2 2 2 2 2 2 2 2 2 2 2 2 2 2 2 2 2 2 2 2 2 2
left_child=1 2 5 9 7 8 -7 11 22 -2 14 12 26 -12 19 16 21 -8 -19 20 -5 -11 23 28 -4 -17 -3 -10 -1 -9
right_child=3 4 24 10 -6 6 17 29 27 15 13 -13 -14 -15 -16 25 -18 18 -20 -21 -22 -23 -24 -25 -26 -27 -28 -29 -30 -31
leaf_value=-0.0041804244381057508 -0.002582358597962537 -0.0059638662840650128 -0.0021586945333015185 -0.0044716057144687793 -0.0019044821217902106 -0.0010438038015990348 -0.0019258877078914651 -0.0051036797647484849 0.002252583190265077 0.00045663920599069282 0.00081656652102300047 -0.0060455349293491462 -0.0030970187892178131 -0.0029872254096617607 -0.0022106308337032695 -0.0024021770040752221 0.001769418474327834 -0.0049101919018618581 -0.0027453816878302072 -0.0048121286229207546 -0.0023872913611148582 -0.0014539460918440155 -0.0022631120219642744 -0.0058633011370673345 8.5038251891549741e-05 -0.00053501966432622583 -0.0042620044231414028 -0.0023033119094453252 -0.0025093990826466055 -0.0026556906075565607
leaf_weight=0.38996973917801392 0.11671177750031347 0.11214264149475628 0.04930109709221131 0.079372736508048547 0.092437364920442633 0.17581425960452179 0.10917387583049276 0.030835062357255083 0.0089717390492296545 0.096358328341921373 0.045423191794725426 0.14911504651718133 0.11483996299921273 0.032462893060255738 0.25428138044298976 0.10214244100279757 0.057534504289833421 0.082531084099173313 0.10023541207101516 0.087091410093307786 0.15698060996146523 0.10639909759629518 0.057327334882756986 0.054526945017641992 0.12827684466083156 0.097459901263391657 0.12586413256394735 0.089493045661583892 0.064534623672443558 0.14196083269052906
leaf_count=24174 6506 8392 2686 4981 4628 7728 5725 2020 327 3787 1743 10917 6778 1746 12858 5464 2041 5659 5318 5810 8615 4972 2978 3709 5354 4360 8230 4678 3556 7974
internal_value=0 -0.00325899 -0.00274568 -0.00193032 -0.00413559 -0.00309184 -0.0022965 -0.00444123 -0.00365142 -0.00105409 -0.00270096 -0.00490551 -0.00442373 -0.000768853 -0.00296144 -0.000666245 -3.4173e-05 -0.00305091 -0.00372294 -0.00355169 -0.00308725 -0.000545961 -0.00395797 -0.00414884 -0.000537891 -0.0014905 -0.00506388 -0.0018882 -0.00394316 -0.00309253
internal_weight=0 2.07735 1.31016 1.23222 0.767195 1.13258 0.467755 0.674758 0.664823 0.576606 0.655612 0.501962 0.352847 0.0778861 0.577726 0.459894 0.260292 0.29194 0.182766 0.323445 0.236353 0.202757 0.566359 0.509031 0.177578 0.199602 0.238007 0.0984648 0.454504 0.172796
internal_count=183714 120831 71892 62883 48939 63852 24430 44311 39422 27130 35753 34317 23400 3489 32264 20624 10800 16702 10977 19406 13596 8759 34417 31439 8040 9824 16622 5005 27730 9994
is_linear=0
shrinkage=0.1


Tree=12
num_leaves=31
num_cat=0
split_feature=118 104 142 137 147 125 71 94 1 125 82 80 33 72 94 94 174 169 146 145 71 128 94 72 29 125 127 110 131 122
split_gain=0.00012766 8.83952e-05 6.5247e-05 0.00010407 5.94778e-05 4.29843e-05 3.67237e-05 3.50908e-05 3.47371e-05 3.45051e-05 2.946e-05 2.90201e-05 2.53589e-05 2.55905e-05 2.40848e-05 2.15729e-05 1.84639e-05 1.90316e-05 1.82503e-05 1.82435e-05 1.8089e-05 1.79961e-05 1.79297e-05 1.75147e-05 1.71319e-05 1.6523e-05 1.63896e-05 1.48571e-05 1.43264e-05 1.61659e-05
threshold=2288.5000000000005 1.0000000180025095e-35 33394.500000000007 38806.500000000007 4374.5000000000009 3493.5000000000005 88690.500000000015 101442.50000000001 -1.0000000180025095e-35 2539.5000000000005 11400.500000000002 3335.5000000000005 1.0000000180025095e-35 15005.500000000002 164824.50000000003 85808.500000000015 1.5000000000000002 1.0000000180025095e-35 1598.5000000000002 525.50000000000011 23568.500000000004 140223.50000000003 44258.500000000007 111041.50000000001 9860.5000000000018 5933.5000000000009 85206.500000000015 31042.500000000004 306.50000000000006 3308.5000000000005
decision_type=2 2 2 2 2 2 2 2 2 2 2 2 2 2 2 2 2 2 2 2 2 2 2 2 2 2 2 2 2 2
left_child=5 27 3 12 6 8 7 20 19 26 -11 24 -3 -14 28 -15 -10 -18 -13 -1 -5 -12 -22 -17 -7 -26 -4 -2 -8 -30
right_child=1 2 9 4 -6 11 14 -9 16 10 21 18 13 15 -16 23 17 -19 -20 -21 22 -23 -24 -25 25 -27 -28 -29 29 -31
leaf_value=-0.0029583882018619401 -0.0038109425744993321 -0.001303067461038033 -0.004434606446436274 -0.00019648920822337682 0.0019803174733142928 -0.0013106127421558492 -0.0034809526298029553 0.0013036107677392821 -0.0055647823549708703 -0.0034860963326853074 -0.0021455610332964947 -0.0012740413862137305 -0.00073293314091885217 -0.0041128942189437813 0.00049883739576342455 -0.0015406722782585489 -0.0044596151744740698 -0.0029461174776292914 -0.0029341134199424908 0.00053551877554474303 -0.0032079634501706311 -0.00052331088733104439 -0.0010213511754593933 -0.0034778287824666753 -0.0046517786435385632 -0.0014928447307511782 -0.0025750406988721032 -0.0069513937443059937 -0.0026458988169593867 -0.00027256749556219082
leaf_weight=0.11789809600668377 0.18949521432659855 0.1213003141265292 0.12887783403130004 0.18199957067554351 0.073381100904043706 0.024682794539330644 0.079731918441211747 0.087711255551766953 0.096586818993273482 0.13383411006907409 0.28685846118332847 0.14922176550771837 0.045630033707311668 0.15801739926791925 0.032408080046479881 0.091824720998374687 0.29052080957990278 0.11635944814770482 0.11906463947434531 0.017113993191742338 0.050319408075665706 0.089785417363600573 0.14719375097683951 0.094921427846202278 0.11151242420419294 0.019445407406237791 0.07496579721555463 0.016365317381314526 0.076800671978162427 0.045824285441995016
leaf_count=7279 11516 5738 8469 7549 2619 1288 4662 3199 7455 7830 15250 7997 1939 9432 1252 4439 20548 7083 7199 775 2762 4272 7064 5538 7792 1066 4071 1280 4246 2105
internal_value=0 -0.00208741 -0.00188446 -0.00145909 -0.0007286 -0.00342157 -0.00101177 -0.000499073 -0.00393987 -0.00265088 -0.00221169 -0.00264096 -0.002566 -0.00295841 -0.00203213 -0.00325296 -0.00432184 -0.00402679 -0.00201078 -0.0025155 -0.000915701 -0.00175884 -0.00157842 -0.00252531 -0.00372724 -0.00418272 -0.00375073 -0.0040606 -0.00243748 -0.001759
internal_weight=0 2.20725 2.00139 1.28706 0.77537 1.06241 0.701989 0.467224 0.638479 0.714322 0.510478 0.423927 0.511694 0.390394 0.234765 0.344764 0.503467 0.40688 0.268286 0.135012 0.379513 0.376644 0.197513 0.186746 0.155641 0.130958 0.203844 0.205861 0.202357 0.122625
internal_count=183714 115232 102436 62544 35458 68482 32839 20574 43140 39892 27352 25342 27086 21348 12265 19409 35086 27631 15196 8054 17375 19522 9826 9977 10146 8858 12540 12796 11013 6351
is_linear=0
shrinkage=0.1


Tree=13
num_leaves=31
num_cat=0
split_feature=173 142 109 125 87 0 147 145 69 174 95 72 94 174 169 94 147 131 123 110 170 124 133 82 146 64 29 109 92 71
split_gain=0.000115526 7.23592e-05 6.12319e-05 4.84048e-05 4.71963e-05 5.39855e-05 4.64767e-05 3.00606e-05 2.60985e-05 2.59438e-05 2.61326e-05 2.50369e-05 3.22007e-05 2.43902e-05 2.15183e-05 2.1223e-05 2.08985e-05 2.02881e-05 1.94874e-05 1.91502e-05 1.78431e-05 1.68403e-05 1.65159e-05 1.63362e-05 1.54307e-05 1.49678e-05 1.47556e-05 1.46368e-05 1.45323e-05 1.40153e-05
threshold=5.5000000000000009 49215.500000000007 2715.5000000000005 3670.5000000000005 214.50000000000003 17228.500000000004 5354.5000000000009 649.50000000000011 11947.500000000002 2.5000000000000004 3829.5000000000005 19098.500000000004 110975.50000000001 1.5000000000000002 1.0000000180025095e-35 166188.50000000003 4379.5000000000009 567.50000000000011 2058.5000000000005 20729.500000000004 1.0000000180025095e-35 2334.5000000000005 1004.5000000000001 10743.500000000002 1.0000000180025095e-35 2605.5000000000005 36194.500000000007 3528.5000000000005 87934.500000000015 103540.50000000001
decision_type=2 2 2 2 2 2 2 2 2 2 2 2 2 2 2 2 2 2 2 2 2 2 2 2 2 2 2 2 2 2
left_child=3 2 11 7 5 9 15 13 26 -4 -11 -2 22 -1 28 17 27 19 -8 -6 -16 -9 25 -3 -10 -13 -5 -7 -15 -14
right_child=1 23 4 8 6 16 18 21 24 10 -12 12 29 14 20 -17 -18 -19 -20 -21 -22 -23 -24 -25 -26 -27 -28 -29 -30 -31
leaf_value=-0.0045389037747868514 -0.00089409707190395984 -0.0041981775782005777 -0.0028354645199304609 -0.0019678120119612807 -0.0036658539442236946 -0.0032352825915006782 -0.0046277248443466522 0.00013836325675599395 -0.0009905557378937647 -0.0011402869776683359 0.0015169159498235141 -0.0054473892544683825 -0.00051007539314536807 -0.0033492848857059362 -0.0015144356243886185 0.001282073369612144 0.0040225361699968909 -0.0011598064536081504 0.0022560439442730821 -0.0019279715014351502 -0.0033954667529574596 -0.0026603238315874209 -0.0014504699866812075 -0.0026448069495730573 -0.0023425582379904462 -0.0033699735511019272 -0.0037854933313942276 0.00072503313625951326 -0.004712601757564475 -0.0025116617771251504
leaf_weight=0.20411048298410606 0.088381160314383811 0.095252892338976491 0.074305438931332679 0.070210649677392212 0.12950879728668951 0.0098255927005084231 0.0046643975711049271 0.032251269914922887 0.16895616742749553 0.24636390624345972 0.043554340218179277 0.044930326365829387 0.06586551367854554 0.31542479304061999 0.10353965822378086 0.017020977519678127 0.018732024531345814 0.10457265923650993 0.034754552751110168 0.12422646968479967 0.098310765797577915 0.064496020288061118 0.033777793288209068 0.23406621008780348 0.16871257196180522 0.15206282534563798 0.12272321785621898 0.18585775763403944 0.10395744324068801 0.074609684727874992
leaf_count=14748 4046 6486 4358 3674 7952 552 313 1434 8551 11899 1664 3396 2950 20397 5289 662 556 5324 1334 6864 5968 3768 1788 13973 9451 8870 8056 7683 7439 4269
internal_value=0 -0.00175573 -0.00145239 -0.00295715 -0.00101082 -0.000427266 -0.00182498 -0.00339503 -0.0021962 -0.00116837 -0.000741096 -0.00240675 -0.00276686 -0.00359052 -0.00327892 -0.00216804 0.000831632 -0.00233193 0.0014415 -0.002815 -0.00243059 -0.00172737 -0.00349348 -0.00309411 -0.00166607 -0.00384379 -0.00312402 0.000526179 -0.00368723 -0.00157317
internal_weight=0 1.78233 1.45301 1.45269 0.993387 0.578639 0.414748 0.92209 0.530603 0.364224 0.289918 0.459627 0.371246 0.825343 0.621233 0.375329 0.214415 0.358308 0.039419 0.253735 0.20185 0.0967473 0.230771 0.329319 0.337669 0.196993 0.192934 0.195683 0.419382 0.140475
internal_count=183714 94939 74480 88775 49161 26712 22449 59043 29732 17921 13563 25319 21273 53841 39093 20802 8791 20140 1647 14816 11257 5202 14054 20459 18002 12266 11730 8235 27836 7219
is_linear=0
shrinkage=0.1


Tree=14
num_leaves=31
num_cat=0
split_feature=64 174 104 125 71 94 125 132 169 70 142 137 131 175 94 72 94 127 70 111 131 175 87 167 130 94 71 144 131 72
split_gain=0.000108187 7.04399e-05 4.91263e-05 4.79258e-05 4.2329e-05 4.78939e-05 3.98817e-05 3.80656e-05 3.4177e-05 3.01798e-05 2.71326e-05 2.59727e-05 2.41625e-05 2.40616e-05 2.27377e-05 2.16311e-05 2.06999e-05 2.0521e-05 1.93091e-05 1.70469e-05 1.65375e-05 1.62601e-05 1.60015e-05 1.58193e-05 1.47183e-05 1.47152e-05 2.34666e-05 1.44605e-05 1.4415e-05 1.31998e-05
threshold=3498.5000000000005 1.5000000000000002 1.5000000000000002 4915.5000000000009 66278.500000000015 96681.500000000015 5449.5000000000009 27.500000000000004 1.0000000180025095e-35 101787.50000000001 33354.500000000007 36583.500000000007 630.50000000000011 1.5000000000000002 164824.50000000003 75002.500000000015 61978.500000000007 61352.500000000007 89159.500000000015 27803.500000000004 765.50000000000011 1.0000000180025095e-35 439.50000000000006 1.0000000180025095e-35 5.5000000000000009 90566.500000000015 113971.50000000001 54.500000000000007 595.50000000000011 19098.500000000004
decision_type=2 2 2 2 2 2 2 2 2 2 2 2 2 2 2 2 2 2 2 2 2 2 2 2 2 2 2 2 2 2
left_child=1 12 6 4 5 9 8 14 15 10 11 29 17 21 18 16 27 -1 22 28 -17 -10 25 -23 -9 -6 -27 -2 -5 -3
right_child=2 3 -4 19 7 -7 -8 24 13 -11 -12 -13 -14 -15 -16 20 -18 -19 -20 -21 -22 23 -24 -25 -26 26 -28 -29 -30 -31
leaf_value=-0.0051481578377890469 -0.0029088998416711008 -0.0012898337704852338 -0.00010535305692076035 -0.0012736693708573891 -0.0044258535147689284 0.00044700240445729491 0.00019201173670898382 -0.0017955443416570146 -1.9006411132133621e-05 -0.0049329303531886644 -0.0029198085350529523 -0.00074166307686875533 -0.0025268917359587842 -0.00010596147065574177 -0.00099733333951200747 -0.0034861667397383962 -0.00024523178546956797 -0.0033970722811415897 -0.0054293856916747055 -0.005575686223002467 -0.0015050181710310989 -0.0031790572021878662 -0.0050869706926454043 -0.0015107328083126008 -0.0049267666044059315 -0.0016029359580871255 -0.0037876006840614367 -0.0013502784920870758 0.00054675982306330649 -0.0035962489664947347
leaf_weight=0.14082162971135392 0.14172474360930187 0.040631381661114796 0.23783703063145356 0.13543297273281485 0.073018613925341924 0.075397138299194921 0.10264284077038599 0.20805200994800543 0.048866575139072665 0.038726415480596188 0.20559575155311904 0.1937955816538306 0.1050354429453364 0.13395419564858457 0.030310175246995641 0.20305072935843782 0.064908152359748783 0.12753302626970253 0.063950494055461604 0.0074035488023582721 0.053166836224590952 0.080338677721556451 0.054790537990811572 0.19428387393691082 0.016179110221855808 0.092483783880197734 0.10497795965602563 0.10263060822853731 0.064077846643158409 0.063740034177499183
leaf_count=11382 8091 2117 10520 7183 5431 3348 4429 12141 2155 2739 12719 9691 6601 5995 1527 12864 2873 8579 5146 531 2788 4737 4372 9585 1149 5468 7542 4905 2900 4206
internal_value=0 -0.00258629 -0.0014112 -0.00227447 -0.00250582 -0.00191459 -0.00168713 -0.00307329 -0.00187568 -0.00224281 -0.00203601 -0.0014266 -0.0038127 -0.00123302 -0.00363546 -0.00239556 -0.00183261 -0.00431597 -0.0038409 -0.000863843 -0.00307507 -0.00169972 -0.00352859 -0.00199879 -0.00202147 -0.00321291 -0.00276438 -0.00225427 -0.000688993 -0.00269837
internal_weight=0 1.84195 1.3634 1.46856 1.26165 0.617886 1.12557 0.643763 1.02292 0.542489 0.503763 0.298167 0.37339 0.457443 0.419532 0.565481 0.309264 0.268355 0.389221 0.206914 0.256218 0.323489 0.325271 0.274623 0.224231 0.27048 0.197462 0.244355 0.199511 0.104371
internal_count=183714 114772 68942 88210 77596 34820 58422 42776 53993 31472 28733 16014 26562 22472 29486 31521 15869 19961 27959 10614 15652 16477 22813 14322 13290 18441 13010 12996 10083 6323
is_linear=0
shrinkage=0.1


Tree=15
num_leaves=31
num_cat=0
split_feature=169 71 94 170 131 72 95 122 94 94 72 94 76 174 135 144 71 125 93 94 122 121 94 127 148 140 87 70 0 84
split_gain=9.92029e-05 7.1331e-05 7.19318e-05 6.3684e-05 4.45444e-05 4.42062e-05 3.50655e-05 2.9743e-05 2.69418e-05 2.63568e-05 2.4272e-05 3.34966e-05 2.26759e-05 2.36475e-05 2.19357e-05 2.11028e-05 2.10386e-05 2.06987e-05 2.20105e-05 1.99243e-05 1.89136e-05 1.8457e-05 1.67579e-05 1.66005e-05 1.61301e-05 1.53921e-05 1.36421e-05 1.39043e-05 1.31366e-05 1.30498e-05
threshold=1.0000000180025095e-35 93846.500000000015 101442.50000000001 1.0000000180025095e-35 765.50000000000011 27290.500000000004 1532.5000000000002 3491.5000000000005 164142.50000000003 154595.50000000003 144398.50000000003 115741.50000000001 16.500000000000004 2.5000000000000004 31976.500000000004 59.500000000000007 149024.50000000003 3470.5000000000005 2313.5000000000005 147091.50000000003 4425.5000000000009 24809.500000000004 23130.500000000004 19909.500000000004 8666.5000000000018 11595.500000000002 338.50000000000006 88262.500000000015 7361.5000000000009 29.500000000000004
decision_type=2 2 2 2 2 2 2 2 2 2 2 2 2 2 2 2 2 2 2 2 2 2 2 2 2 2 2 2 2 2
left_child=1 2 5 12 8 6 22 21 10 17 11 -3 13 -2 15 -9 -11 18 -5 -6 28 -7 26 -20 -4 -19 27 -1 -15 -25
right_child=3 4 24 9 19 7 -8 14 -10 16 -12 -13 -14 20 -16 -17 -18 25 23 -21 -22 -23 -24 29 -26 -27 -28 -29 -30 -31
leaf_value=-0.0017133265563395086 -0.0018850360483290921 -0.0044246628582561348 -0.0016804417918952494 -0.001165195521127953 -0.0026685708085159138 -0.0024611182667820556 -0.00052103222635676368 -0.0034685621523665661 -0.0016082670133961961 0.0012218456543745453 -0.0050535506240760655 -0.0022420902949141321 0.0023165402533697212 -0.0021518218263956728 -0.00069209545198774963 -0.0014076865497932231 -0.0021638254288629303 -0.0024609665955245227 -0.004998282816435367 -0.00051427736549083643 0.001107481884205425 -0.0039375457825044412 -0.00012598515331046933 -0.0030869980097189783 0.00025644837674612908 -0.00073167694130657295 -0.0041507349396556403 -0.003918068127634922 -0.00031509487379352628 -0.0010503621788655157
leaf_weight=0.13193142901218358 0.10688973358082876 0.15481897281733847 0.058529402547719545 0.080500933790062845 0.11314966468489729 0.13694990380008676 0.20756001427525916 0.11580952926215105 0.055011190618643013 0.04605493084545742 0.13718167083879962 0.12883195824997529 0.029009394453169079 0.044745281240466284 0.087769261243010988 0.08702179535976029 0.030514428900460189 0.080822945104046084 0.037740249568742001 0.069178948575427057 0.085577781298525224 0.22180681918689515 0.031271438000658236 0.17667157442338066 0.16200451562144735 0.14173045338520751 0.045032739456473792 0.036523277980450075 0.30011702063438861 0.038277830402876134
leaf_count=7313 6292 12103 3324 4229 7096 8396 9416 7593 2934 1777 11111 8175 1016 2384 4617 4786 1712 4672 2853 3513 3471 16246 1491 11202 7178 7216 3182 2357 13967 2092
internal_value=0 -0.00232957 -0.00190614 -0.00117695 -0.00318021 -0.00223614 -0.00147716 -0.00276483 -0.00368945 -0.00186677 -0.0039615 -0.00343336 -0.000406758 -0.000553783 -0.00201285 -0.00258437 -0.000127412 -0.00210642 -0.00260519 -0.00185119 -0.000223198 -0.00337394 -0.00228797 -0.00306394 -0.0002576 -0.00135969 -0.00260466 -0.00219134 -0.000553407 -0.00272432
internal_weight=0 1.98038 1.32221 1.19865 0.658172 1.10168 0.452319 0.649357 0.475844 0.632313 0.420833 0.283651 0.566339 0.53733 0.290601 0.202831 0.0765694 0.555744 0.333191 0.182329 0.43044 0.358757 0.244759 0.25269 0.220534 0.222553 0.213487 0.168455 0.344862 0.214949
internal_count=183714 120831 75899 62883 44932 65397 23759 41638 34323 35753 31389 20278 27130 26114 16996 12379 3489 32264 20376 10609 19822 24642 14343 16147 10502 11888 12852 9670 16351 13294
is_linear=0
shrinkage=0.1


Tree=16
num_leaves=31
num_cat=0
split_feature=174 118 104 144 123 33 118 71 131 1 120 94 71 86 107 147 94 145 95 127 84 94 67 145 115 109 145 86 167 94
split_gain=9.01757e-05 8.14762e-05 6.0527e-05 4.94399e-05 3.16579e-05 3.13924e-05 3.1066e-05 2.69166e-05 2.59816e-05 2.2089e-05 2.20064e-05 2.12075e-05 3.0206e-05 2.09263e-05 1.87627e-05 1.82365e-05 1.80414e-05 1.77476e-05 1.76035e-05 1.72404e-05 1.94259e-05 1.71637e-05 1.68088e-05 1.64011e-05 1.42855e-05 1.40317e-05 1.36116e-05 1.2288e-05 1.20573e-05 1.1875e-05
threshold=1.5000000000000002 1552.5000000000002 1.5000000000000002 57.500000000000007 3631.5000000000005 1.0000000180025095e-35 2902.5000000000005 136416.50000000003 848.50000000000011 -1.0000000180025095e-35 14761.500000000002 122553.50000000001 26151.500000000004 24923.500000000004 93345.500000000015 4385.5000000000009 153229.50000000003 1691.5000000000002 2121.5000000000005 102622.50000000001 35.500000000000007 93962.500000000015 1.0000000180025095e-35 2610.5000000000005 163.50000000000003 9030.5000000000018 856.50000000000011 24166.500000000004 1.0000000180025095e-35 161414.50000000003
decision_type=2 2 2 2 2 2 2 2 2 2 2 2 2 2 2 2 2 2 2 2 2 2 2 2 2 2 2 2 2 2
left_child=6 8 3 4 9 18 17 11 13 -3 -6 12 -7 14 15 29 -9 25 -5 20 -11 -21 23 28 -14 27 -4 -1 -8 -2
right_child=1 2 26 5 10 7 22 16 -10 19 -12 -13 24 -15 -16 -17 -18 -19 -20 21 -22 -23 -24 -25 -26 -27 -28 -29 -30 -31
leaf_value=-0.0030795491996134525 -0.0011541297290582956 -0.001087009726737867 -0.00012788353840599846 -0.0036133635683568374 -0.001499556172354556 0.00015739166043778909 -0.0038222928617611569 -0.0046411096220267565 -0.0011820468255089632 -0.0035537402358280855 0.00054526259068957996 0.00041678472559033419 -0.0019512681674777469 -0.0040419042725701087 -0.003358395825468579 -0.0028128129095703405 -0.0013766640003702213 -0.0003896522265492771 0.0010810424301935255 -0.0020732463569240393 -0.0017416365726390581 0.0019329439730908682 -0.0011681133797068694 0.0018013355834450219 0.0015805485933098136 -0.0055948713455287874 0.0020116763632177822 -0.0048603400860431122 -0.0023133726599299793 0.0043113235324933321
leaf_weight=0.17913398934524627 0.10283702417018536 0.11458872449384283 0.30768526859446854 0.0086148228565434692 0.2742107696712992 0.11844983374248841 0.074260348514144425 0.03209963453355158 0.12071580180236197 0.2234070529766532 0.065131864866998512 0.11136487057865452 0.23794749632088497 0.10881812186471507 0.13767855195237644 0.1017676749452221 0.03582362545603246 0.016679555929840717 0.10978345620060281 0.13848461740690254 0.080465427990930039 0.011589153927161533 0.11666871947727486 0.0081813519072966301 0.012031586031298502 0.035762962507760676 0.03291537452605553 0.049443725913079106 0.18459173336032109 0.0041352540174557353
leaf_count=13146 5961 5918 14369 527 14551 4855 5232 2349 6940 15314 2922 4912 13719 8286 10476 6749 1879 913 4519 7697 4694 414 6573 341 512 3172 1254 4097 11295 128
internal_value=0 -0.00144351 -0.00112981 -0.00139136 -0.00187142 -0.000737061 -0.00275449 -0.00105624 -0.00248634 -0.00232764 -0.00110708 -0.000792475 -0.001158 -0.00283221 -0.00245221 -0.00185452 -0.0029194 -0.00355332 0.000739471 -0.00264081 -0.0030739 -0.00176388 -0.00216944 -0.00260693 -0.00178128 -0.00375294 7.88818e-05 -0.00346475 -0.00274626 -0.00094285
internal_weight=0 2.49055 1.91459 1.57399 0.907878 0.666115 0.664722 0.547717 0.575952 0.568535 0.339343 0.479794 0.368429 0.455237 0.346419 0.20874 0.0679233 0.28102 0.118398 0.453946 0.303872 0.150074 0.383702 0.267033 0.249979 0.264341 0.340601 0.228578 0.258852 0.106972
internal_count=183714 138945 100405 84782 51510 33272 44769 28226 38540 34037 17473 23998 19086 31600 23314 12838 4228 21328 5046 28119 20008 8111 23441 16868 14231 20415 15623 17243 16527 6089
is_linear=0
shrinkage=0.1


Tree=17
num_leaves=31
num_cat=0
split_feature=125 103 104 127 69 169 146 71 131 125 175 144 93 132 120 175 87 94 72 144 176 68 0 147 110 91 145 128 71 96
split_gain=8.1689e-05 8.46508e-05 5.2293e-05 4.29744e-05 4.25329e-05 3.98478e-05 3.14341e-05 2.90161e-05 2.60038e-05 2.47e-05 2.14379e-05 2.09977e-05 2.07222e-05 2.0457e-05 1.98532e-05 1.87157e-05 1.86911e-05 1.79306e-05 2.86377e-05 1.72782e-05 1.70097e-05 1.67047e-05 1.59558e-05 1.82643e-05 2.37296e-05 1.58617e-05 1.58119e-05 1.56681e-05 1.49115e-05 1.34989e-05
threshold=3670.5000000000005 -1.0000000180025095e-35 1.0000000180025095e-35 122336.50000000001 11695.500000000002 1.0000000180025095e-35 1.0000000180025095e-35 24850.500000000004 692.50000000000011 5878.5000000000009 1.5000000000000002 60.500000000000007 26334.500000000004 23.500000000000004 14761.500000000002 1.0000000180025095e-35 565.50000000000011 132777.50000000003 131463.50000000003 67.500000000000014 3.5000000000000004 34.500000000000007 4140.5000000000009 4385.5000000000009 15286.500000000002 81846.500000000015 3241.5000000000005 26111.500000000004 137085.50000000003 6.5000000000000009
decision_type=2 2 2 2 2 2 2 2 2 2 2 2 2 2 2 2 2 2 2 2 2 2 2 2 2 2 2 2 2 2
left_child=1 7 15 5 9 8 14 26 12 11 13 -2 -4 16 19 -3 -7 27 -19 -6 28 22 -8 24 -24 -13 -1 -9 -14 -10
right_child=4 2 3 -5 6 10 21 17 29 -11 -12 25 20 -15 -16 -17 -18 18 -20 -21 -22 -23 23 -25 -26 -27 -28 -29 -30 -31
leaf_value=0.00024439059645024703 -0.0029552733958482162 -0.00099784070074342883 -0.0042982539054575841 -0.00093020590944103304 -0.00074921781191624988 -0.0022382471160559267 -0.0044077629587407595 -0.00013896436639185045 -0.0011337519486577885 -9.4083104476490149e-05 -0.00026525702850917638 -0.00099579878870505981 -0.0027931612742343724 -0.00056970287350663817 0.0013491373096387322 -0.0046209785252436962 -0.0061178076552176486 0.001455694435318994 -0.0017454890426705624 0.00097545261200813354 -0.00018898706116332909 0.0027190565463747532 -0.0010201843145022699 -0.0017758054712711251 0.0014888365874580233 -0.0058953579830025313 0.0057422955797318403 -0.0022160155760279211 -0.0048732651423638662 -0.0029787021331248633
leaf_weight=0.12609472171880054 0.16464477131103172 0.016168952400221426 0.13648073935473781 0.24090981026620273 0.21314525568050158 0.2485271983318853 0.014947610363378772 0.045560779472907598 0.10719689224060858 0.068313659298837592 0.088691731924882333 0.12368585205695126 0.3041954249565606 0.076146315828736988 0.1005799726681289 0.1205873584267465 0.013071683508769638 0.052547352540386782 0.059690606010462943 0.079849090195239114 0.022473354357316566 0.011169911176693859 0.16155572654406569 0.19604699618594168 0.049166655414410343 0.0069803581018277319 0.0054574445239268235 0.17902355356545741 0.038865934806381119 0.062944549274106976
leaf_count=5755 10585 987 10802 12066 11212 15368 1009 2312 6361 3318 4543 6549 21633 4053 4339 9604 1152 2090 3507 3560 1250 421 8527 11366 2012 573 138 10997 3353 4272
internal_value=0 -0.0019583 -0.00232993 -0.00213976 -0.000906399 -0.002405 -0.000509858 -0.00078696 -0.00288471 -0.00180768 -0.00164888 -0.00220408 -0.00324681 -0.00201222 0.000136932 -0.00419261 -0.0024321 -0.00127885 -0.000246765 -0.000279197 -0.00285422 -0.00109791 -0.00119901 -0.0010811 -0.000434769 -0.00125754 0.000472471 -0.00179465 -0.00302882 -0.0018163
internal_weight=0 1.94463 1.47626 1.3395 1.19009 1.09859 0.826461 0.468374 0.672157 0.363625 0.426437 0.295311 0.502015 0.337745 0.393574 0.136756 0.261599 0.336822 0.112238 0.292994 0.365535 0.432887 0.421717 0.406769 0.210722 0.130666 0.131552 0.224584 0.343061 0.170141
internal_count=183714 120243 95444 84853 63471 72787 42446 24799 47671 21025 25116 17707 37038 20573 19111 10591 16520 18906 5597 14772 26236 23335 22914 21905 10539 7122 5893 13309 24986 10633
is_linear=0
shrinkage=0.1


Tree=18
num_leaves=31
num_cat=0
split_feature=104 169 72 94 170 131 118 72 140 147 174 71 94 168 104 95 71 128 95 94 140 94 72 73 145 94 71 128 137 70
split_gain=7.80371e-05 6.7794e-05 4.68667e-05 4.44671e-05 4.22569e-05 3.49439e-05 2.59252e-05 2.44245e-05 2.12837e-05 2.10727e-05 1.93494e-05 1.88462e-05 2.32249e-05 1.84565e-05 1.8334e-05 1.82672e-05 1.79699e-05 1.74382e-05 1.68793e-05 1.61938e-05 1.61491e-05 1.9345e-05 1.966e-05 1.59371e-05 1.53622e-05 1.48512e-05 1.40687e-05 1.35098e-05 1.25164e-05 1.2273e-05
threshold=1.5000000000000002 1.0000000180025095e-35 75680.500000000015 56524.500000000007 1.0000000180025095e-35 692.50000000000011 2025.5000000000002 27290.500000000004 11637.500000000002 6329.5000000000009 1.5000000000000002 88690.500000000015 74913.500000000015 1.0000000180025095e-35 1.0000000180025095e-35 1743.5000000000002 15132.500000000002 123404.50000000001 2354.5000000000005 150500.50000000003 11918.500000000002 121191.50000000001 149173.50000000003 49876.500000000007 2647.5000000000005 149817.50000000003 93846.500000000015 122053.50000000001 23063.500000000004 103868.50000000001
decision_type=2 2 2 2 2 2 2 2 2 2 2 2 2 2 2 2 2 2 2 2 2 2 2 2 2 2 2 2 2 2
left_child=1 2 3 7 11 10 -2 14 9 15 26 12 13 16 -1 -6 -3 -10 24 -7 21 -12 -23 -5 -16 -13 -4 29 -17 -9
right_child=6 4 5 23 8 19 -8 27 17 -11 20 25 -14 -15 18 28 -18 -19 -20 -21 -22 22 -24 -25 -26 -27 -28 -29 -30 -31
leaf_value=-0.0034884084860426073 -0.0014327428045420585 0.00086243302100232208 -0.0026232629426845562 0.00033198595117933508 -0.0028410432445790815 -0.0020774355342935537 9.269923250787488e-05 -0.0028226956466871362 -0.0014797946292185388 -0.0051663405270190258 -0.0038747768992566712 -0.0018858317876646329 0.0015778913690311443 -0.0035988088096724977 -0.0018776525988989001 -0.0034844113692296774 -0.00098291540067967326 0.00043100022089346038 -5.0238965385684989e-05 -0.00015356742341389389 -0.001692523074427611 -0.001323647394786588 -0.0037736719198055192 -0.0016159734517729467 0.0011277274789522642 0.00023174934675914533 -0.0048632168585805123 -0.0010254804202368098 -0.0008497340664922698 -0.0059922381096247142
leaf_weight=0.038386700049613864 0.15475892168797134 0.098753917422982229 0.041618134704095366 0.14307930465565732 0.12224174179073088 0.16868072251827471 0.39776570886942864 0.20108121002385815 0.14821801875132223 0.021661938716079021 0.15536986613278647 0.10381439992715968 0.083125170731818798 0.016469506018438551 0.21283047579072512 0.020842075789005321 0.11332818846494774 0.070468294773036178 0.09431759388962746 0.059074759140912647 0.1110234188204231 0.086478538707069674 0.052718894427925989 0.059451841503687319 0.018485325021174503 0.048634974114065699 0.085943027348093892 0.040592124211343616 0.13369412073234344 0.013007048347390082
leaf_count=2593 9903 4118 3034 6802 7981 10879 18795 13697 8599 1841 12634 6260 3324 1100 12548 1384 5868 3467 4152 3017 7095 5263 4253 3614 771 2253 7773 2347 7203 1146
internal_value=0 -0.00164484 -0.00204984 -0.00152594 -0.000991825 -0.00261526 -0.000334568 -0.00194695 -0.00161352 -0.00216269 -0.00305819 -0.000299136 0.000146525 -0.000374069 -0.00142141 -0.00192761 -0.000123647 -0.00086407 -0.00117775 -0.00157843 -0.00272034 -0.00310773 -0.00225156 -0.000239826 -0.00163748 -0.00121027 -0.00413241 -0.00269812 -0.00120507 -0.00301526
internal_weight=0 2.56339 1.58214 0.821232 0.981252 0.760907 0.552525 0.6187 0.517126 0.29844 0.533152 0.464126 0.311677 0.228552 0.36402 0.276778 0.212082 0.218686 0.325633 0.227755 0.405591 0.294567 0.139197 0.202531 0.231316 0.152449 0.127561 0.25468 0.154536 0.214088
internal_count=183714 155016 101618 47670 53398 53948 28698 37254 30475 18409 40052 22923 14410 11086 20064 16568 9986 12066 17471 13896 29245 22150 9516 10416 13319 8513 10807 17190 8587 14843
is_linear=0
shrinkage=0.1


Tree=19
num_leaves=31
num_cat=0
split_feature=173 87 109 147 147 147 145 120 121 144 86 34 144 124 94 126 71 94 123 131 105 72 94 133 118 94 109 147 146 82
split_gain=7.19262e-05 4.65309e-05 4.98581e-05 3.22108e-05 4.56028e-05 3.33676e-05 3.10756e-05 3.09519e-05 2.29461e-05 2.23562e-05 2.07524e-05 2.02216e-05 2.40552e-05 1.8491e-05 2.13582e-05 1.78805e-05 1.63866e-05 1.62343e-05 1.58565e-05 1.51719e-05 1.48328e-05 1.47302e-05 1.68975e-05 1.45358e-05 1.41636e-05 1.40324e-05 1.38208e-05 1.3698e-05 1.40661e-05 1.3495e-05
threshold=5.5000000000000009 338.50000000000006 2715.5000000000005 5355.5000000000009 4385.5000000000009 4374.5000000000009 714.50000000000011 11781.500000000002 55380.500000000007 45.500000000000007 25350.500000000004 1.0000000180025095e-35 54.500000000000007 115719.50000000001 115741.50000000001 3437.5000000000005 81667.500000000015 127328.50000000001 2310.5000000000005 548.50000000000011 27876.500000000004 161449.50000000003 136864.50000000003 1501.5000000000002 3484.5000000000005 150500.50000000003 10619.500000000002 1744.5000000000002 1.0000000180025095e-35 10743.500000000002
decision_type=2 2 2 2 2 2 2 2 2 2 2 2 2 2 2 2 2 2 2 2 2 2 2 2 2 2 2 2 2 2
left_child=6 2 11 4 5 10 7 8 9 26 13 -2 -13 14 16 -9 -4 23 -6 -20 24 22 -11 -10 29 -15 -1 -17 -29 -3
right_child=1 20 3 -5 18 -7 -8 15 17 21 -12 12 -14 25 -16 27 -18 -19 19 -21 -22 -23 -24 -25 -26 -27 -28 28 -30 -31
leaf_value=-0.002446657091052577 -0.00024138981421586029 -0.0033721939483515612 0.00030674008675710465 0.0032820503248370014 -0.0029522191724608809 0.0024695628850264083 -0.00042977667179384802 -0.0021604269245874505 -0.0039712927291596454 -0.0014708860240842214 -0.0015999531033740987 -0.0027901767182509341 -0.0010854074260274692 -0.0033024452666849816 0.0015635934237379666 -0.0043061411206907424 -0.00154102801045301 -0.0022820787215116767 -0.0015926541410922696 0.00026640330258171995 -0.0039587795319731148 -0.0056683743133345349 0.00085973675857295884 7.5136691689935614e-05 -0.00092358718712107169 3.7998919573860659e-06 -0.0066130819608677845 8.2449887957806523e-05 -0.0014065062958474996 -0.0015979006297285967
leaf_weight=0.2490096290207473 0.10493554508593661 0.067180131929944875 0.28083557789886981 0.026406440261780517 0.052093044562298019 0.058273691114663961 0.14444206080224842 0.14571575542595383 0.1474321092982791 0.21067806740893502 0.074404243745902932 0.14718113817980316 0.18913676232250509 0.025070502613743884 0.11591132036528506 0.010583055060578772 0.057887920044777275 0.15390690026333687 0.1364757139131143 0.06471549455091008 0.030677305084736872 0.0073539171539778172 0.03649758651454249 0.0094463899531547213 0.14601229919981051 0.026307060980343522 0.0082246937636227813 0.13180003187835609 0.12233919108894042 0.11844571900655865
leaf_count=16779 5207 5139 12844 960 3568 2067 7681 10071 12482 12638 4198 9689 10422 1766 4689 755 3525 10829 8134 3174 2234 612 1705 543 8283 1276 797 6686 7197 7764
internal_value=0 -0.000848041 -0.000579696 -0.000159948 -0.000261846 0.000188429 -0.00181751 -0.00198009 -0.00233401 -0.00192241 -4.05958e-05 -0.00145332 -0.00183146 0.000188693 0.000391908 -0.0012708 -9.04389e-06 -0.00301177 -0.00139728 -0.000994667 -0.00185504 -0.00125797 -0.00112675 -0.00372764 -0.00166044 -0.00160954 -0.00257987 -0.000781106 -0.000634314 -0.00224004
internal_weight=0 1.72195 1.35963 0.918381 0.891975 0.63869 1.37743 1.23299 0.822549 0.511764 0.580417 0.441253 0.336318 0.506012 0.454635 0.410438 0.338723 0.310785 0.253284 0.201191 0.362315 0.25453 0.247176 0.156878 0.331638 0.0513776 0.257234 0.264722 0.254139 0.185626
internal_count=183714 94939 71519 46201 45241 30365 88775 81094 56385 32531 28298 25318 20111 24100 21058 24709 16369 23854 14876 11308 23420 14955 14343 13025 21186 3042 17576 14638 13883 12903
is_linear=0
shrinkage=0.1


Tree=20
num_leaves=31
num_cat=0
split_feature=174 118 144 84 72 94 136 118 33 72 95 94 72 94 145 145 86 147 122 176 114 146 87 137 67 75 168 124 94 94
split_gain=6.88965e-05 5.49933e-05 3.9148e-05 2.62136e-05 4.13606e-05 2.72623e-05 2.50324e-05 2.46855e-05 2.26216e-05 2.01016e-05 1.93782e-05 1.87972e-05 1.86425e-05 1.69919e-05 1.61528e-05 1.59649e-05 1.48801e-05 2.53495e-05 1.50244e-05 1.45792e-05 1.73692e-05 1.43956e-05 1.41248e-05 2.15067e-05 1.36903e-05 1.33707e-05 1.19727e-05 1.29061e-05 1.17502e-05 1.14312e-05
threshold=1.5000000000000002 1634.5000000000002 58.500000000000007 35.500000000000007 75002.500000000015 78320.500000000015 1.0000000180025095e-35 2755.5000000000005 1.0000000180025095e-35 32747.500000000004 1450.5000000000002 162096.50000000003 15005.500000000002 46985.500000000007 1673.5000000000002 1779.5000000000002 22694.500000000004 4385.5000000000009 4722.5000000000009 3.5000000000000004 210.50000000000003 2907.5000000000005 439.50000000000006 97545.500000000015 1.0000000180025095e-35 6.5000000000000009 1.0000000180025095e-35 98218.500000000015 30635.500000000004 131418.50000000003
decision_type=2 2 2 2 2 2 2 2 2 2 2 2 2 2 2 2 2 2 2 2 2 2 2 2 2 2 2 2 2 2
left_child=7 8 3 4 5 9 -4 14 10 28 -2 19 -8 -11 26 16 17 18 -10 20 -6 -5 23 29 25 -9 27 -1 -3 -14
right_child=1 2 6 21 11 -7 12 24 15 13 -12 -13 22 -15 -16 -17 -18 -19 -20 -21 -22 -23 -24 -25 -26 -27 -28 -29 -30 -31
leaf_value=-0.0023048218713362075 -0.0017629455006374372 -0.00082531099754428079 0.00069795819727451176 0.00034585262922271777 7.7013240325299106e-05 0.00086667930260403685 0.00088336396423787332 -0.0022073559352764152 -0.0011948785146913162 -0.003001794721144983 0.00070200894827982939 2.6514132203350247e-05 -0.0014799575966395872 -0.00094491368302264389 0.00025849070184222594 0.00029719755544408067 -0.0030701077002974167 -0.0026279347999646095 0.0019176277512974406 -0.00016668162478019607 -0.00304219245934414 -0.0014267809954254188 -0.0026781018699924631 0.00051183072423231682 -0.00071000800083252582 0.0001465668643469849 -0.0052553130314524771 -0.0040187527300463658 0.0011906795755934265 -0.00016299056044825715
leaf_weight=0.13924442399911674 0.066591897561920965 0.2529294799414854 0.25513576076036759 0.17456889949880861 0.019451083939202363 0.083873024726472067 0.082247417140933976 0.25254969356319634 0.10538758857364883 0.081888235029509815 0.061206957569538645 0.031761447088683781 0.20220249323847383 0.078821031860115909 0.015386805547677795 0.026468329097042442 0.14235024183290079 0.16624374209959569 0.018184851412570424 0.023350634083726618 0.21717808383573356 0.062114530946928426 0.035137889958605228 0.12470981973910966 0.12128213779442376 0.026679932930164796 0.022944406450733368 0.064187237186615675 0.032642483997733507 0.097779879329664254
leaf_count=10470 4412 12978 11439 8645 1122 3520 3171 16935 6901 5538 3247 1456 11421 4544 835 1368 11098 12470 832 1281 15563 3516 2425 5993 7025 1415 2211 5878 1386 4619
internal_value=0 -0.000914835 -0.000648084 -0.00104666 -0.0013137 -0.000787466 -0.000118829 -0.00207879 -0.00175898 -0.00109834 -0.0005824 -0.00226999 -0.000503261 -0.00199298 -0.00287674 -0.00208684 -0.00223285 -0.00182161 -0.000736844 -0.00255055 -0.00278579 -0.000119352 -0.000751279 -0.000591859 -0.00159713 -0.00198244 -0.00308984 -0.00284561 -0.000594872 -0.00105069
internal_weight=0 2.44223 1.85579 1.05858 0.821896 0.530154 0.797213 0.642275 0.586434 0.446281 0.127799 0.291741 0.542077 0.160709 0.241763 0.458635 0.432166 0.289816 0.123572 0.25998 0.236629 0.236683 0.45983 0.424692 0.400512 0.27923 0.226376 0.203432 0.285572 0.299982
internal_count=183714 138945 98617 59549 47388 27966 39068 44769 40328 24446 7659 19422 27629 10082 19394 32669 31301 20203 7733 17966 16685 12161 24458 22033 25375 18350 18559 16348 14364 16040
is_linear=0
shrinkage=0.1


Tree=21
num_leaves=31
num_cat=0
split_feature=104 125 102 120 104 169 125 120 94 72 175 127 94 72 169 175 71 94 106 70 142 29 94 146 111 110 94 88 95 131
split_gain=6.21066e-05 5.4525e-05 4.25989e-05 3.27213e-05 3.25679e-05 2.44483e-05 2.38056e-05 2.1581e-05 1.84438e-05 1.99535e-05 1.79714e-05 1.76364e-05 3.20947e-05 2.09468e-05 1.72087e-05 1.65737e-05 1.5403e-05 1.64641e-05 1.52293e-05 1.48608e-05 2.59958e-05 1.48413e-05 1.48329e-05 1.40691e-05 1.38058e-05 1.51415e-05 1.30287e-05 1.29729e-05 1.29551e-05 1.23351e-05
threshold=1.5000000000000002 3670.5000000000005 -1.0000000180025095e-35 14761.500000000002 1.0000000180025095e-35 1.0000000180025095e-35 5988.5000000000009 14808.500000000002 165506.50000000003 110364.50000000001 1.5000000000000002 26344.500000000004 121870.50000000001 59334.500000000007 1.0000000180025095e-35 1.0000000180025095e-35 71419.500000000015 90566.500000000015 46264.500000000007 79684.500000000015 33394.500000000007 82725.500000000015 81046.500000000015 315.50000000000006 15563.500000000002 17422.500000000004 143683.50000000003 4402.5000000000009 2425.5000000000005 870.50000000000011
decision_type=2 2 2 2 2 2 2 2 2 2 2 2 2 2 2 2 2 2 2 2 2 2 2 2 2 2 2 2 2 2
left_child=1 2 16 6 15 11 14 -5 9 19 18 29 13 -13 21 -4 -1 -18 -7 20 -2 22 -3 -11 25 -20 -23 -17 -21 -6
right_child=8 3 4 7 5 10 -8 -9 -10 23 -12 12 -14 -15 -16 27 17 -19 24 28 -22 26 -24 -25 -26 -27 -28 -29 -30 -31
leaf_value=-0.00011404562910113854 0.0014528161009250452 -0.0015202013985479263 -0.00038169107595294448 0.0023916223664897564 -0.0036578713276147717 -0.0025993007017914107 0.00047377259123525944 -0.00012198860471455454 0.0017603784864425763 -0.00026568723637204332 0.00011728875000272363 -0.0015464514964892871 -7.708049851590877e-05 -0.0029427025047555956 -0.00047082298023858613 -0.0035819083948392841 -0.0035128960335253298 -0.00093296164033232661 -0.00083623240836005997 -0.0018782593843226737 -0.00053956632706868952 -0.003122011390098229 0.0001158060690857229 -0.0023032461531071499 -0.001706409093232065 0.0020889721936584124 -0.001083074074219227 -0.0084513121714955824 0.00041876906421921251 -0.0013088425977505478
leaf_weight=0.2082937952245637 0.13941356018494833 0.23057577367308102 0.015899220455140139 0.048782110202864715 0.1027868863202448 0.088200778694044857 0.10536070100715733 0.11392637127119087 0.049421478075601044 0.066747223389029386 0.090318365267648915 0.22965091172954999 0.085315472168531414 0.20191653249867159 0.2458107011152606 0.108011041892496 0.030326355915349268 0.13417123076987991 0.077622487696316966 0.058339800934390951 0.12349943681647346 0.086677999488983914 0.07295296639767912 0.068837368346976291 0.13954988308796601 0.022920221965250676 0.04908778086928578 0.0057631483600744096 0.042396195365199674 0.028567635380113643
leaf_count=10425 5876 13774 987 1947 8853 5863 5097 5792 1952 3823 4572 14177 4804 16673 12868 8903 2283 8010 4181 3526 6871 6625 3678 4658 9114 946 2936 701 1992 1807
internal_value=0 -0.00125635 -0.00161868 -0.000659789 -0.0019095 -0.00172761 -0.000925612 0.000631625 -8.23828e-05 -0.000264806 -0.0011319 -0.0021123 -0.00184936 -0.00219971 -0.00114082 -0.00340594 -0.000685276 -0.00140859 -0.00147557 0.000121224 0.000516924 -0.00151572 -0.00112699 -0.00130017 -0.00106276 -0.000169388 -0.00238481 -0.00382856 -0.000911522 -0.00314699
internal_weight=0 2.52249 1.56931 0.953174 1.19652 1.06685 0.790466 0.162708 0.548655 0.499234 0.418612 0.648237 0.516883 0.431567 0.685105 0.129673 0.372791 0.164498 0.328293 0.363649 0.262913 0.439295 0.303529 0.135585 0.240093 0.100543 0.135766 0.113774 0.100736 0.131355
internal_count=183714 155016 102299 52717 81581 70990 44978 7739 28698 26746 24676 46314 35654 30850 39881 10591 20718 10293 20104 18265 12747 27013 17452 8481 14241 5127 9561 9604 5518 10660
is_linear=0
shrinkage=0.1


Tree=22
num_leaves=31
num_cat=0
split_feature=167 87 148 87 147 147 104 71 133 110 94 86 137 69 72 94 95 72 124 94 145 169 78 94 33 95 64 170 125 94
split_gain=5.66113e-05 5.91057e-05 5.0271e-05 4.34998e-05 4.87518e-05 3.81989e-05 2.71508e-05 2.5353e-05 2.70983e-05 2.07584e-05 1.95468e-05 1.89182e-05 1.86631e-05 1.80928e-05 1.75389e-05 1.94748e-05 1.72332e-05 1.72137e-05 1.655e-05 1.54488e-05 1.50669e-05 1.5042e-05 1.47264e-05 1.45118e-05 1.31405e-05 1.3133e-05 1.30519e-05 1.27696e-05 1.26191e-05 1.25318e-05
threshold=1.0000000180025095e-35 338.50000000000006 30388.500000000004 214.50000000000003 5354.5000000000009 4374.5000000000009 1.0000000180025095e-35 9281.5000000000018 865.50000000000011 20179.500000000004 168916.50000000003 28764.500000000004 33957.500000000007 12272.500000000002 144398.50000000003 132777.50000000003 1627.5000000000002 126692.50000000001 69686.500000000015 131418.50000000003 1979.5000000000002 1.0000000180025095e-35 11856.500000000002 151183.50000000003 1.0000000180025095e-35 2317.5000000000005 5686.5000000000009 1.0000000180025095e-35 4966.5000000000009 115059.50000000001
decision_type=2 2 2 2 2 2 2 2 2 2 2 2 2 2 2 2 2 2 2 2 2 2 2 2 2 2 2 2 2 2
left_child=6 2 7 5 9 12 -1 -2 11 29 14 21 22 26 15 16 18 19 28 27 24 -9 -4 -19 -18 -10 -3 -14 -8 -5
right_child=1 13 3 4 -6 -7 10 8 25 -11 -12 -13 17 -15 -16 -17 20 23 -20 -21 -22 -23 -24 -25 -26 -27 -28 -29 -30 -31
leaf_value=-0.0032205396286449899 0.00034068176919071916 -0.002281699864978877 0.00097467198961253263 -0.0021919630734799178 0.0023676457214292772 0.0026345878625417428 -0.0021576889514688868 -0.0020055478235598855 -0.00085335160718161068 -0.00029451917576910709 0.0017382842278470219 -0.0032086130814934308 0.00086771041887017796 -0.00090255869915457888 -0.0029340855919802182 0.00010120856194049972 0.00036230966864564894 -0.0019341477130655983 -0.003962622609471683 0.0022236255798139173 0.0022544699399540151 -0.00051915309080218788 -0.0021341805482122662 0.00065612976066915709 -0.0015172883647033405 0.0013662570071427558 -8.2933715776769982e-05 -0.00044011747878786999 0.00018462226128168171 -0.00059279078662342823
leaf_weight=0.09879855617055 0.096414295004706552 0.2919143917411019 0.021407663174158875 0.16344742659794065 0.045314120511648071 0.075419583076381969 0.15509428254335977 0.19261643972231468 0.081827216065448738 0.185102233161615 0.018716079106525285 0.080416014072852704 0.25201427338970461 0.22064039751967357 0.079456468153239257 0.079846460955195653 0.043980179725167545 0.049873181535076583 0.044446811465604696 0.059239372800220735 0.012995305399726931 0.10530379746433027 0.052860479055198084 0.038190863570434885 0.24107517929405731 0.039537046402529086 0.029748184848358505 0.10608506311018573 0.027005515964901861 0.069984987527277553
leaf_count=7943 4511 21386 1009 10554 1857 2664 10678 13496 4874 10318 792 5772 11412 13745 6092 4166 2237 3303 3841 2077 506 5609 3224 1753 15592 1875 1678 5409 1394 3947
internal_value=0 -0.00068999 -0.000402252 -7.08405e-06 -0.000748058 0.000517576 -0.00166834 -0.001144 -0.00143046 -0.00108539 -0.00145008 -0.00184755 0.000242136 -0.00159997 -0.00153734 -0.00135373 -0.00157518 0.000459649 -0.00223259 0.000727734 -0.00107548 -0.00148016 -0.00123806 -0.000810818 -0.00122729 -0.000130266 -0.00207835 0.000480273 -0.00181032 -0.00171252
internal_weight=0 2.25736 1.71505 1.11894 0.463849 0.65509 0.801415 0.596115 0.499701 0.418535 0.702616 0.378336 0.579671 0.542303 0.6839 0.604444 0.524597 0.505403 0.226547 0.417339 0.298051 0.29792 0.0742681 0.088064 0.285055 0.121364 0.321663 0.358099 0.1821 0.233432
internal_count=183714 130473 93664 57527 26676 30851 53241 36137 31626 24819 45298 24877 28187 36809 44506 38414 34248 23954 15913 18898 18335 19105 4233 5056 17829 6749 23064 16821 12072 14501
is_linear=0
shrinkage=0.1


Tree=23
num_leaves=31
num_cat=0
split_feature=174 64 132 72 94 94 145 97 118 62 69 142 72 95 145 116 168 145 94 147 72 94 33 149 135 176 67 70 119 94
split_gain=5.35368e-05 4.00507e-05 2.93334e-05 2.79114e-05 2.93032e-05 2.47427e-05 2.14923e-05 2.11013e-05 1.92415e-05 1.89885e-05 1.62121e-05 1.43226e-05 1.5431e-05 1.48464e-05 1.41592e-05 1.39753e-05 1.39471e-05 1.44984e-05 1.39032e-05 1.34613e-05 1.37517e-05 1.25289e-05 1.24795e-05 1.15295e-05 1.13778e-05 1.10423e-05 1.09929e-05 1.09504e-05 1.52153e-05 1.59614e-05
threshold=1.5000000000000002 3686.5000000000005 42.500000000000007 75002.500000000015 87166.500000000015 150500.50000000003 867.50000000000011 74.500000000000014 2755.5000000000005 347.50000000000006 12165.500000000002 65894.500000000015 19098.500000000004 1678.5000000000002 207.50000000000003 6715.5000000000009 1.0000000180025095e-35 1290.5000000000002 51754.500000000007 6069.5000000000009 160767.50000000003 117786.50000000001 1.0000000180025095e-35 3.5000000000000004 28132.500000000004 1.5000000000000002 1.0000000180025095e-35 87740.500000000015 116335.50000000001 145047.50000000003
decision_type=2 2 2 2 2 2 2 2 2 2 2 2 2 2 2 2 2 2 2 2 2 2 2 2 2 2 2 2 2 2
left_child=8 2 3 4 9 10 7 25 16 -2 19 12 13 -11 23 -12 17 27 -14 20 21 -5 -9 -4 -7 -3 -10 28 29 -1
right_child=1 6 14 5 -6 24 -8 22 26 11 15 -13 18 -15 -16 -17 -18 -19 -20 -21 -22 -23 -24 -25 -26 -27 -28 -29 -30 -31
leaf_value=-0.0020991532498436708 -0.0028431960400183351 -0.00093285794348407227 -0.00064111367408287883 -0.0026565642267478776 0.00086287867710562567 0.00077233472952113985 0.0013521556171957069 0.0015766995199180058 -0.0015987792798376793 -0.00075642042532819513 -0.0033356941352926973 -0.0036754861707038477 -0.0016139094903484055 0.00091944313789096323 0.0020325605513742896 -0.00077463916740864189 -0.0047726190156578731 0.00057130317155478308 -0.00017366996425496469 -0.0045322136816442404 -0.0076396827694741659 -0.0012685328117418139 2.4458785802057798e-05 0.0015182071502039443 -0.0011115740170838603 0.00039201771016770382 -0.00045270092657812916 -0.0043519821695822457 -0.0045108064218764123 0.0012384506267313555
leaf_weight=0.13143105476910966 0.049430445478719998 0.39603907171749586 0.122685777585957 0.16447945552272358 0.10269679233942952 0.048499073814127769 0.08920626446888491 0.062630605938466033 0.2746164000304816 0.12707886035332194 0.025209795362570731 0.0167441049388799 0.21175562260259539 0.090514234312649933 0.034625740406227123 0.13763296171100592 0.022272708516538842 0.018018940019373986 0.098067144176638976 0.027159063048657117 0.0045692017442888746 0.10755328683899279 0.29934531891558436 0.030969018511314061 0.094569602391402441 0.074788361640003131 0.12037916690951533 0.024902027810639993 0.022804517323038453 0.016081704855423595
leaf_count=10525 3613 21510 7087 13512 4674 2417 3658 2394 18350 7249 2045 1317 13501 3859 1537 8941 2268 995 5668 2765 526 7606 14216 1495 5787 3568 7025 2395 2280 931
internal_value=0 -0.000641328 -0.000961138 -0.00112937 -0.000696776 -0.00162342 -0.000123033 -0.000281049 -0.00167606 -0.000966611 -0.00197618 -0.000796146 -0.000704734 -5.92958e-05 0.000205761 -0.00117112 -0.00239149 -0.00214278 -0.00115804 -0.00240776 -0.00219916 -0.00210778 0.000293034 -0.000205904 -0.000472945 -0.000722409 -0.0012495 -0.0023933 -0.00210692 -0.00173529
internal_weight=0 2.41625 1.49424 1.30596 0.696287 0.609672 0.92201 0.832803 0.630507 0.59359 0.466604 0.54416 0.527416 0.217593 0.188281 0.162843 0.235511 0.213238 0.309823 0.303761 0.276602 0.272033 0.361976 0.153655 0.143069 0.470827 0.394996 0.195219 0.170317 0.147513
internal_count=183714 138945 93599 83480 39881 43599 45346 41688 44769 35207 35395 31594 30277 11108 10119 10986 19394 17126 19169 24409 21644 21118 16610 8582 8204 25078 25375 16131 13736 11456
is_linear=0
shrinkage=0.1


Tree=24
num_leaves=31
num_cat=0
split_feature=169 170 170 140 121 125 33 94 128 175 174 144 95 125 125 67 104 145 137 111 175 69 175 176 95 33 146 95 124 142
split_gain=5.07774e-05 3.73881e-05 3.5372e-05 2.98212e-05 2.95301e-05 2.33101e-05 1.929e-05 1.83436e-05 1.78383e-05 1.8515e-05 1.64437e-05 1.64104e-05 1.61841e-05 1.5716e-05 1.42045e-05 1.37798e-05 1.37166e-05 1.29912e-05 1.28455e-05 1.38196e-05 1.2725e-05 1.21563e-05 1.1744e-05 1.11853e-05 1.1151e-05 1.46428e-05 1.10772e-05 1.06963e-05 1.22685e-05 1.05586e-05
threshold=1.0000000180025095e-35 1.0000000180025095e-35 1.0000000180025095e-35 11918.500000000002 24809.500000000004 2885.5000000000005 1.0000000180025095e-35 167552.50000000003 128089.50000000001 1.5000000000000002 1.5000000000000002 37.500000000000007 4360.5000000000009 3939.5000000000005 3239.5000000000005 1.0000000180025095e-35 1.5000000000000002 1036.5000000000002 37879.500000000007 19774.500000000004 1.5000000000000002 10670.500000000002 1.0000000180025095e-35 3.5000000000000004 2181.5000000000005 1.0000000180025095e-35 4539.5000000000009 771.50000000000011 129141.50000000001 58867.500000000007
decision_type=2 2 2 2 2 2 2 2 2 2 2 2 2 2 2 2 2 2 2 2 2 2 2 2 2 2 2 2 2 2
left_child=2 15 3 4 12 26 -6 13 9 11 -4 22 17 -8 -12 20 23 29 -13 -20 -2 -15 -3 24 -7 -26 -5 -10 -29 -1
right_child=1 8 10 5 6 16 7 -9 27 -11 14 18 -14 21 -16 -17 -18 -19 19 -21 -22 -23 -24 -25 25 -27 -28 28 -30 -31
